2712 128
725 0.075851046 -0.23965111 0.77223974 0.76057476 0.4130201 -0.12355736 -0.08619408 0.24604394 -0.40879762 -0.24955548 0.68045723 -0.5630712 -0.2867989 -0.6113694 -0.0849526 -0.11558307 -0.4102125 0.48376963 -0.15390803 -0.13912651 0.4727028 0.3583067 -0.21873383 0.34779838 -0.37451798 -0.13525693 -0.038471013 0.5421657 -0.19805269 0.66392004 0.3137389 -0.1979046 -0.054271966 -0.14931607 0.022942107 0.04084736 -0.13851237 -0.08441625 0.25819004 -0.22481954 -0.33248174 0.06853428 -0.187248 -0.088329606 0.17779577 -0.025403986 -0.5818886 -0.05893036 0.020026557 0.4306123 -0.62670976 -0.18835981 -0.15433358 -0.1505021 0.44224483 -0.23303811 0.11763538 -0.16951239 -0.25148013 0.21509756 -0.21913417 -0.025137046 0.14994897 -0.36510447 -0.07584979 0.4058811 0.15139067 0.3461026 -0.26378372 -0.06306033 -0.02562525 0.16441971 0.2640708 0.13971594 0.38834518 0.0074780174 0.3520198 0.20017667 -0.13409798 -0.073883936 0.08285979 -0.36575687 0.20428297 0.13220224 -0.3609059 0.6120406 0.48152125 -0.77098656 0.09348387 0.3991741 -0.29647636 0.27580792 0.38616136 0.03434517 0.5579347 0.09504724 -0.6581268 0.2111885 -0.34108183 0.30708933 -0.29941687 0.4022109 0.08650732 0.21671222 -0.009627922 -0.06326299 -0.6807632 -0.20366134 -0.039532475 -0.20533559 -0.30824485 -0.34726545 -0.21129073 0.5960217 0.41212195 0.43578613 0.2602213 0.3493342 0.16970067 0.12400797 0.04311197 -0.6096032 0.10334304 0.10920694 0.14619972 0.36084792 -0.3190117 0.41714063
1588 0.17815834 -0.17252187 -0.15655859 0.2317723 0.6920152 0.013293698 -0.013117036 -0.095489845 -0.7403691 0.3929984 -0.16877389 -0.18819533 -0.15669611 -0.37190717 0.4379585 0.1925994 0.017163027 0.104303405 -0.32940906 -0.24739808 0.31466153 0.07073891 -0.7033831 -0.64925486 -0.26547813 -0.032438513 -0.3033276 1.020995 0.5206949 0.70733094 0.080206804 0.643159 -0.030209979 0.41217455 0.51936233 -0.01292462 0.105311655 0.010068175 -0.22471805 -0.031015603 -0.24032041 0.7363525 -0.27946556 -0.22596653 0.37732017 0.1549585 -0.4213163 -0.09103725 -0.3531129 -0.12946072 0.25395536 -0.21723655 -0.22316042 -0.009752744 0.18258439 -0.40746823 0.25857285 0.026316639 -0.20827016 -0.448629 -0.07132442 0.29239735 -0.11278959 -0.2682667 0.43370587 -0.27128327 0.16268967 0.46258336 0.12654315 -0.1673034 0.3259322 -0.4612991 -0.4003108 0.27886233 0.10825821 -0.22062281 0.06965425 0.22226898 0.16473328 0.09877935 0.11384402 0.07645738 0.29913688 0.24340065 0.3386632 0.15627426 0.3845602 -0.31823698 0.38986495 0.46440446 -0.07454305 0.51744276 0.17214015 -0.017921612 0.15690076 -0.1575117 -0.14724077 0.1832906 0.23234428 -0.2525195 -0.29299337 0.36736026 0.027458463 0.35329217 -0.1459724 0.17206828 -0.0021998677 0.029887402 0.8192447 -0.039541837 0.15277551 -0.3015474 -0.2163372 0.039475907 0.31913853 0.27811143 0.5639416 0.47949862 0.14945388 0.3813484 -0.14312999 -0.9417818 -0.11592739 0.26914087 -0.25199017 -0.026324512 -0.5619169 -0.48155987
1788 0.30423945 -0.63454205 -0.1401908 0.08487128 -0.12739146 -0.5442045 -0.059659414 0.0076247784 -0.31342667 0.1275868 0.07326396 0.05937561 -0.122583576 0.053671297 0.018775359 0.29891935 -0.4970487 0.61754 -0.3940153 0.8213736 0.61462295 0.7422466 -0.67854947 0.4415879 -0.09377491 -0.33351427 -0.23340562 0.8860822 0.1042045 -0.0018383861 -0.20135418 -0.09805714 0.40681842 -0.015439116 0.45704755 0.5155276 0.40898183 0.016334118 0.15722018 0.24905407 -0.3117426 0.033173457 -0.04994417 -0.17768028 -0.09473817 0.15719493 -0.55392164 -0.43674117 0.57618093 0.003149115 0.5030504 0.14948146 -0.010994767 -0.1569559 0.22147985 0.19943152 0.11483443 -0.5706157 0.11494147 -0.18364194 0.6738703 -0.24279928 0.16769722 0.19603416 0.27169043 0.06436352 0.4335718 0.4173588 -0.5096443 0.13340314 0.39989093 0.17623913 -0.19005418 0.29853958 0.21302609 -0.1481579 -0.2669183 -0.24805649 0.22829399 0.3213092 0.43128243 -0.706496 -0.0055923425 0.88967353 0.29962128 0.5142874 0.49465355 -0.42865992 0.4816411 0.7536754 -0.13795209 0.40710574 -0.12032432 -0.33966798 0.2372096 0.009030731 -0.4829083 -0.2417194 -0.30210978 -0.14752626 -0.023389569 0.35497904 -0.052511394 -0.38514563 -0.15986954 -0.27026746 0.11523875 -0.2642772 0.2033303 -0.2836678 0.47855353 -0.081315495 -0.086287744 -0.17965233 0.41455337 -0.15538575 0.040111832 -0.090461805 -0.29452822 0.069966316 -0.11236686 -0.1789683 -0.20714906 0.29704294 -0.0091483025 0.2972758 -0.069093674 0.30400246
1770 0.22181676 -0.049452655 0.57801723 0.32312733 0.049395964 -0.53717124 -0.38219047 0.06310638 -0.065055765 0.25266442 0.5434712 -0.23753263 0.56236124 -0.6190473 -0.1370578 0.035169892 -0.5381813 0.28531972 -0.45735073 0.28988105 0.56170285 0.4913128 -0.43284073 0.47617868 -0.4596396 0.497859 -0.6926772 0.7233482 -0.58114654 0.36889923 -0.1951345 0.1283748 -0.040131465 0.18544683 0.65819865 0.15707202 -0.03940255 -0.35147747 0.30502805 0.78184676 -0.13748436 0.22216897 -0.24081826 -0.08826098 -0.01564704 0.12703517 -0.25485158 -0.04525749 0.015473434 -0.5107855 0.43279904 -0.25537294 -0.43488652 0.30253598 -0.20617679 0.089466944 0.2604072 -0.24422249 -0.13210699 0.8254754 0.02268385 -0.40410048 0.323937 -0.032477938 0.63574183 -0.5951176 0.15535665 0.5820076 0.33259076 0.037581958 0.36711192 -0.26158768 -0.52895033 -0.3091205 0.62569666 0.07808953 0.3903119 -0.17647146 0.2768753 0.23146087 -0.3870142 -0.6268582 0.6773153 0.8154174 -0.515605 0.43745145 0.054716855 0.11935736 0.080746695 0.011849309 -0.01887139 0.50627357 0.25077373 0.36077684 0.5471895 -0.46071106 -0.36168778 -0.17908709 0.015124881 -0.21674283 -0.35902914 0.108267985 0.12500416 0.17133853 -0.71933556 -0.1252871 0.2938181 -0.39958185 0.55606645 -0.23342516 0.4682961 -0.4461465 0.24736407 0.012701541 0.3016632 0.04323222 -0.2261055 0.14553486 -0.09410848 -0.17744593 -0.18973757 -0.20438227 0.107232854 0.23004702 -0.328624 0.19084942 -0.6650324 -0.03703197
1761 -0.03376459 -0.49210337 0.5099229 -0.14496846 -0.14647043 -0.6898713 -0.38772473 0.3267088 -0.117058076 0.1709594 0.44764984 -0.11776934 -0.018364672 -0.3058464 0.6170174 -0.1376535 -0.62292516 0.67548513 0.17640299 0.32956743 0.47115415 0.25080907 -0.28220138 0.8823239 -0.13763683 -0.22861792 -0.08090255 0.4731113 0.3574072 -0.013055731 -0.31768203 -0.1982895 0.3449929 0.21487589 0.53218395 0.37213895 0.197122 -0.13435537 0.102611616 0.06896197 0.058065522 0.2773258 -0.45353666 -0.49879557 0.62326074 -0.07837238 -1.0483345 -0.67744756 0.4336352 -0.14285581 0.69901985 -0.63807327 -0.21620701 -0.087601684 0.005083148 0.24637783 -0.116381004 -0.5119599 -0.36668774 0.18908289 -0.034521624 -0.057736717 0.472402 0.20663193 -0.26377362 0.09539504 0.20917611 0.50783616 -0.077378385 -0.10658819 0.33343863 -0.043536257 -0.19944496 -0.25509045 0.42731637 -0.051877227 -0.17381966 0.16174275 0.64731854 0.46513677 -0.48045284 -0.44530112 0.23760748 0.8792387 0.16978762 0.36592585 0.58341116 -0.16311835 0.47155565 0.46525103 -0.50370836 0.5287105 -0.059143126 0.31678045 0.4322802 -0.22035846 -0.15911673 -0.4109276 -0.08344066 0.15633358 0.1874675 0.6846768 -0.23275213 -0.259722 -0.2784374 0.1574693 0.21799022 -0.54674524 0.083455116 -0.23660365 0.14906837 -0.11180275 -0.2184021 0.10386813 0.100386456 -0.29467255 0.13044171 0.11682468 0.19155705 0.33864865 -0.12009523 -0.45835304 -0.25656146 0.31014284 -0.3172665 0.20224437 -0.4838429 -0.18585965
1069 0.58245033 -0.6274612 0.1524703 -0.06487679 0.27879378 0.4287132 -0.30570683 -0.06363614 -0.6450582 0.25688377 0.2794389 -0.34460288 -0.4108223 -0.40070248 0.2634237 -0.1812109 -0.23030716 0.070325255 -0.14152765 0.48820078 0.32149148 0.3884968 -0.11828016 0.4662239 -0.6809563 -0.046214454 -0.5717994 0.59899765 -0.4300283 0.2077523 0.066692755 0.23815599 0.20839006 0.10858552 0.2880916 -0.19970483 0.1542076 0.1251945 0.029591499 0.08384793 -0.24192686 -0.1973068 -0.34375003 -0.13367066 0.43217602 0.053654585 -0.2775039 -0.001189796 -0.4219571 -0.2658123 -0.34239042 -0.15359747 -0.23005368 -0.09367883 0.21612619 0.009766018 0.3022608 0.076074846 -0.47203904 0.35293612 -0.36864388 0.16909906 0.33206987 0.17620997 -0.029784692 0.27890638 0.30713418 0.031401187 -0.07003548 -0.42423207 0.38044366 -0.23577115 0.39580035 0.12001901 0.4788955 0.013809056 -0.09567756 -0.0187626 0.268345 0.08555767 -0.37930393 0.11203126 0.20850724 -0.18168822 -0.2535044 0.9166594 0.04745557 -0.29478607 -0.27655306 0.45939627 -0.30092502 0.4558752 0.50193644 -0.3134147 0.3243986 0.12517904 -0.37882897 -0.014770688 -0.38401654 0.38007957 0.042438857 0.2065289 -0.52308285 0.25976416 0.23009863 -0.55008286 -0.61240554 -0.37975556 0.73638767 0.18820037 -0.69971174 0.2731784 0.30874753 -0.00898279 0.12669854 0.5126277 -0.11508197 0.5386123 -0.3525089 0.13235399 0.34374467 -0.28842878 -0.2071103 0.22361459 0.26893106 0.7873618 -0.5181869 0.22750682
737 0.31073064 -0.0060126516 0.80546784 0.64793265 0.52484876 -0.16809556 -0.0026608938 0.12692302 -0.19267891 -0.06022677 0.25160405 -0.18538699 -0.16322239 -0.22597565 0.3392772 0.033904754 -0.698435 0.2500653 -0.070741475 0.06770376 0.57612664 0.28053448 -0.2620409 0.1825538 -0.50807256 0.0608472 0.14512655 0.44941744 -0.3240274 0.33065477 0.09744045 -0.3409982 -0.5964153 -0.05345213 0.36623633 0.004593786 -0.04397887 0.21258111 0.29330486 0.030407738 -0.41481614 0.18129791 -0.22109877 -0.15243945 0.45655438 0.10075183 -0.06136038 0.0043919566 -0.3756961 0.20522201 -0.2787083 -0.5883121 -0.3900616 -0.0777017 0.3706241 0.19183205 -0.18786222 0.18607849 -0.0388145 -0.08247176 -0.54671973 0.046041492 0.1684535 0.13699889 0.3983442 0.30834523 0.2612406 0.21798502 -0.5268077 0.1390238 0.19173002 -0.40133068 0.16293813 0.66842914 0.3391804 -0.16993566 -0.020820608 0.071262754 -0.0442681 0.20534791 0.20679745 -0.76912475 -0.07495961 0.32393283 0.11668552 0.075347714 0.61883456 -0.9934829 0.103721626 0.50977427 -0.22683266 0.6076614 0.13268833 0.05870228 0.58241576 -0.08891888 -0.13868892 0.38964662 -0.4346204 0.18234195 -0.14382131 0.45374256 0.3681798 -0.041405797 -0.24872799 0.7725359 -0.3231962 -0.39004856 0.24439694 -0.18674861 -0.24298164 -0.88621813 -0.5818999 -0.09343267 0.1438627 0.4492111 -0.13688648 -0.054084703 0.17051968 -0.35997775 0.19466928 -0.25177318 0.08689714 0.1414159 0.18580277 0.030248312 -0.10855514 0.28378484
1384 0.06325338 -0.5027093 0.12641612 0.25828177 0.26497483 -0.13641137 -0.11506498 0.19326805 -0.48580378 0.15160176 -0.29291812 0.4896359 -0.5293836 -0.2980714 -0.20071323 0.26138258 -0.23059396 0.69593203 -0.14703803 1.1126035 0.4518488 0.7038389 -0.51660776 0.18025497 -0.11522279 -0.1682823 0.17654361 0.777043 -0.14888304 0.3867412 -0.045070898 0.23623078 0.03338665 -0.460905 0.80079484 0.33231863 -0.09889529 0.085612774 -0.3178402 0.5129077 -0.39456424 0.21504183 0.036484055 -0.33219478 -0.16149527 0.33285543 -0.6958443 0.03539758 0.0885955 -0.40028232 0.007943239 0.12755053 -0.36750174 -0.04395283 0.3466701 0.43339154 0.13894942 -0.17532088 0.6422307 -0.33620867 0.3232126 -0.084013864 0.01756887 0.23285112 0.33574036 0.029113652 0.669688 0.0829949 -0.76958483 0.20428778 0.26323855 -0.10979557 0.13415201 0.2732861 0.17902751 -0.14858772 -0.29693693 -0.38843837 0.1683944 0.24368021 0.47222242 -0.6713307 0.049496837 0.85685134 0.73057395 0.721773 0.468141 -0.42930344 0.18573415 0.22710261 -0.39660448 0.056693364 0.272315 -0.16368331 -0.10055904 -0.27633455 -0.22883587 -0.05553917 -0.1675923 -0.38162416 0.033121772 0.3772346 -0.08826966 -0.03954596 -0.1664941 -0.037879884 -0.13131985 -0.37017563 -0.009492739 -0.20397417 0.66047853 -0.13123655 -0.013602771 -0.30211103 0.34162405 -0.015343059 0.26312128 -0.009304983 -0.35911572 0.44010377 0.14636636 -0.3436616 0.36924675 0.03737649 -0.10461833 0.34534335 0.45811835 0.1950995
1734 0.02315058 -0.6566332 0.2786611 0.35159388 0.06011672 -0.3309123 -0.32287887 0.01086933 -0.5872926 0.2869634 -0.021652166 0.48528743 -0.367267 -0.15352698 -0.09961829 0.37824526 0.0066765663 0.60304797 -0.12579142 1.211688 0.16073826 0.45742348 -0.45441955 0.4242879 -0.10043307 -0.20326371 0.27932242 0.62028635 -0.14592613 0.3322304 -0.47964644 0.43823746 0.013948581 -0.29733035 0.7045598 0.53742856 0.26134405 0.032083567 -0.09511922 0.39604494 -0.2332541 0.23426808 0.05528936 -0.43229347 -0.05974724 0.29686 -0.48465824 -0.13391148 0.15637653 -0.20375569 0.20093375 0.18126015 -0.10720844 -0.16861933 0.14195226 0.18491855 0.1305801 -0.20572846 0.5166535 -0.37094256 0.29604504 -0.05448997 -0.06621898 0.14074762 0.27548152 0.050506532 0.5434143 0.29774383 -0.56757236 0.11350429 0.25283778 0.34714812 0.20449604 0.20513944 0.34632054 -0.1188359 -0.0341724 -0.14214216 0.0032211482 0.42740995 0.30215576 -0.5733249 -0.0030868207 0.8488991 0.35422748 0.4575904 0.45634815 -0.354716 0.46610212 0.3218036 -0.3384308 0.06255324 0.21506912 -0.40073058 0.0083117 -0.27010536 -0.27779645 -0.12121619 -0.2685782 -0.5307349 0.10359819 0.117158785 -0.3096468 -0.05543909 -0.11547602 -0.4346688 -0.3752018 -0.077680364 0.13643165 -0.08809082 0.36570603 -0.11684758 -0.03416231 -0.46421495 0.25391808 0.09226768 0.20908222 -0.2956141 -0.31881198 0.23343147 0.07891753 -0.14926118 0.026926802 0.10869611 -0.033307843 0.2415217 0.25489 0.122987986
1736 0.36207804 -0.10975861 0.073207945 0.47922632 0.028626341 -0.43595257 -0.21605253 0.06910215 -0.16542536 0.23564778 0.33492628 -0.0027248764 0.029395923 -0.060045328 0.2727493 0.4935004 -0.47300297 0.5211607 -0.28804955 0.7842259 0.48666602 0.66726196 -0.62444997 0.52612615 -0.20367074 -0.17090711 -0.052701183 0.70573634 -0.18300946 0.2177319 -0.5320562 0.053332012 0.4452702 -0.1835806 0.57544345 0.02815113 0.28771922 0.07583669 0.3542458 0.49018008 -0.21729113 0.24012414 -0.055699237 -0.27326328 0.016974552 0.2008994 -0.5151589 -0.3990441 0.20326728 -0.31623933 0.509215 0.0042009805 0.06510628 0.28738123 -0.1121998 0.37538755 0.5082095 -0.8935012 -0.1153595 0.3043683 0.14736187 -0.41516307 -0.047912262 -0.24929957 0.43481946 -0.6498082 0.5685396 0.44674528 -0.3695371 0.1694888 0.47149292 0.13608697 -0.12152701 0.09764745 0.42664424 0.049180243 -0.0063659907 0.042947568 0.099304944 0.49774557 -0.11597396 -0.82862103 -0.07350502 0.6277457 -0.3800498 0.49621442 0.46388686 -0.14081758 0.43587932 0.60663205 -0.40877962 0.21381368 0.06098444 0.12134019 0.47577506 -0.26527268 -0.21397614 -0.35252756 -0.29214802 -0.26498708 -0.054322824 0.25804758 0.27919513 -0.14644256 -0.30314243 -0.18174611 0.3486276 -0.21722774 0.09508343 -0.2753485 0.54411197 -0.270861 0.059478063 -0.07838164 0.4913144 -0.3307579 -0.11397279 -0.012294058 -0.026108172 0.08749497 -0.12102777 -0.21266168 -0.11993805 0.2960926 -0.017774459 0.13317925 -0.10180247 0.17086539
1608 0.2711687 -0.30481148 0.12132647 0.40166944 0.15121634 -0.45774582 0.23490089 0.04909001 -0.011613064 0.24667095 -0.15087788 -0.16321562 0.27298534 -0.19159292 0.44182348 0.12824 -0.06723455 -0.29502714 0.066687435 0.42127022 0.47639656 0.40333113 -0.51462024 -0.20922473 -1.1206359 -0.04673288 -0.83258843 0.35834786 -0.103863485 0.6386195 0.4891059 -0.16843994 -0.045695577 -0.20044127 0.6179363 0.18823612 -0.1019759 0.38315603 0.20330821 0.51566666 0.26185906 -0.05970676 -0.020124462 -0.42851532 0.5069558 0.42128363 -0.46149436 -0.14143163 0.42307734 0.21971911 0.10243355 -0.35074446 -0.036866583 0.2382272 0.13207068 -0.11915622 0.33890134 0.76913655 -0.2853196 -0.41671538 -0.34666383 0.3280583 -0.30778453 -0.22126782 0.61299306 -0.14808476 0.06713419 0.06331244 0.12231136 -0.1644494 -0.29048127 -0.17695978 0.2234443 0.346733 0.7991839 -0.11377438 0.054937396 0.026548823 -0.51653636 0.6099082 -0.35966668 -0.7628395 0.022840345 0.8374937 -0.42028227 -0.29565266 0.48403716 -0.3910471 0.38111094 0.47276565 -0.7763064 -0.28536204 0.34694713 0.31024933 0.23080231 0.21296433 -0.6145471 0.2710025 0.18128774 -0.17344666 -0.46382788 0.040937986 -0.40571666 0.38280964 -0.15268347 -0.09319361 0.09260925 -0.034334395 -0.018357078 -0.011645688 0.5526981 -0.42002726 0.16259925 0.05081416 0.09108903 0.5657385 0.87375134 0.2634342 -0.2539459 0.15420094 0.10622882 -0.1724584 -0.01487363 -0.11557583 -0.1341086 0.88042057 -0.4010388 0.4333221
1789 0.61980766 -0.63538986 0.62395126 -0.41193643 -0.25526103 -0.5642955 -0.19490048 0.4577995 0.1787557 0.06291455 -0.22102521 -0.5106111 0.034282725 -0.07054477 0.15589304 0.18800943 -0.66304964 0.706283 -0.18302651 0.367254 0.5923858 0.31506473 -0.65922576 0.27271423 -0.098340444 -0.417707 -0.8458363 0.25673342 0.08280209 0.1744289 -0.28407064 -0.12529391 0.16298172 0.28887948 0.45633605 0.46288985 0.6721639 0.2641991 -0.13488053 0.24656624 -0.6776162 0.24433374 -0.12555271 -0.20486835 0.6130878 -0.22270216 -0.6714667 -0.5760081 0.48532492 0.5107215 0.20559308 -0.36267602 -0.16269885 -0.20017664 -0.11611729 0.35199624 0.17752866 -0.07149884 -0.57125837 -0.08593961 0.07556345 -0.19940794 0.3303704 -0.05143859 0.40611234 0.19859749 0.18533038 -0.23840311 -0.10982973 -0.18988603 0.07720406 0.21070363 -0.42751965 -0.12819019 0.3826409 -0.30628422 -0.08435968 0.3067127 0.45722023 0.36824372 0.010639498 -0.5029948 0.18741138 0.7435528 0.07972582 0.14118318 0.32513788 -0.3193272 0.36821258 0.61892426 -0.24640389 0.40518835 -0.39476767 0.0093116285 -0.11330617 0.2470937 -0.31763846 0.07442315 -0.24049331 0.071455725 -0.296619 0.44809932 -0.26606676 -0.17391075 -0.34944633 0.049964067 -0.25140756 -0.27372605 0.2505506 0.18863514 -0.031936627 0.29878566 -0.05129718 0.022830345 -0.12385899 -0.21987306 -0.23515028 -0.21780692 0.013261966 0.36599097 0.0349779 -0.5278659 -0.23749928 -0.032741677 -0.10281284 0.36348906 -0.09825652 0.4465581
720 0.21523444 -0.19430743 0.6460289 0.87801987 0.38858786 -0.45165548 -0.20610842 0.48546872 -0.4189716 -0.10141567 0.5784481 -0.62562317 -0.04461623 -0.744105 -0.28051448 -0.47260728 -0.30746722 0.44286165 -0.27780733 0.19818696 0.40204 0.53137195 -0.034780756 0.2687585 -0.03632289 -0.28555536 0.08059751 0.33497596 -0.09966124 0.4880269 0.2793192 0.37512302 -0.14938134 -0.13707016 -0.13070978 0.24066493 -0.029266445 -0.100511044 -0.024402235 -0.16447935 -0.05912301 0.115242824 -0.47285387 -0.27335858 0.22024265 0.12628691 -0.7020654 0.03749823 -0.04821783 0.26081085 -0.5242104 -0.46256799 -0.081815995 0.1217246 0.39556694 -0.08445201 -0.010114346 -0.14839168 -0.05181985 0.104731865 -0.10406222 0.2635754 0.043603066 -0.55838215 -0.007758366 0.2548075 0.33547974 0.51097935 -0.18129154 -0.10427119 -0.07243235 0.27437657 0.3871895 -0.1256071 0.07967203 0.06649311 0.3506198 0.08743275 -0.37326837 -0.14700803 0.13725793 -0.5255858 0.16061938 0.38207167 -0.34866777 0.4971191 0.4045872 -0.7396617 -0.2076989 0.2890226 -0.20785862 0.2073343 0.2978221 0.36728078 0.7032725 0.032085817 -0.629911 -0.100994326 -0.13549364 0.12788586 -0.3727774 0.4498773 -0.15206234 0.13884407 -0.016761772 -0.1877095 -0.584736 0.045871876 -0.01618192 -0.17525345 -0.39383477 -0.39295197 -0.15766189 0.8026019 0.43897256 0.5233735 0.28544882 0.33638918 0.1270209 0.083338365 -0.04759453 -0.5969923 0.027955756 0.32885364 -0.09803279 0.46897778 0.029558226 0.36541826
1780 0.28133863 -0.30683288 0.18090138 -0.0803563 0.30191356 -0.044999376 -0.22929448 0.57535154 -0.413542 0.23061582 0.09687876 -0.5979093 0.37407863 -0.52030843 0.42793363 0.47023398 -0.17316554 -0.40989488 -0.30982384 0.351351 0.23900789 0.22399582 -0.35799897 0.037255615 -0.18067548 -0.2263217 -0.30504096 -0.07385968 -0.25449815 0.5532196 -0.0022328685 0.18170142 -0.076305404 0.38172936 0.17264235 -0.06012162 0.4820055 -0.087933615 -0.07746907 0.15741381 0.10459911 -0.004079585 -0.09095291 0.24218315 -0.51923573 -0.06411424 -0.60877687 -0.5176024 -0.30012473 -0.25889814 0.049050584 -0.58848023 -0.21426366 -0.32834578 0.34068075 -0.049081676 -0.2633516 -0.5100582 -0.46138176 0.007968052 -0.3757892 -0.13734666 0.17296566 -0.16311398 0.484599 -0.15862949 0.43386886 0.5521564 -0.64022225 -0.05984397 0.0667022 0.06316752 0.18336667 0.35799676 0.58046085 -0.40692586 -0.24493273 -0.4794727 0.31707454 -0.104457945 -0.7170606 -0.77536654 -0.33613107 0.56608516 0.23247719 0.2023312 0.5298159 -0.6630561 0.32206053 -0.2118764 -0.6285945 0.4066808 0.42981794 0.02744319 0.07874779 0.09749132 -0.317433 -0.2916771 -0.602146 0.1393989 -0.41663602 0.6740878 -0.30498508 -0.27485824 0.33606607 -0.7490918 -0.35858682 -0.4257938 0.49614644 0.23884584 0.44398972 0.21085772 -0.04275405 -0.08770572 0.26466298 0.45193273 0.1385577 -0.4817669 0.24506076 -0.14082164 0.5008658 -0.2685111 0.13153607 0.59302294 -0.47047663 -0.08336078 -0.13604699 -0.02831963
2311 0.7504057 -0.18205844 0.9580784 -0.22514248 0.06220387 -0.064359024 -0.23085582 0.2901487 -0.069910616 0.082465395 -0.22260006 0.16595753 0.42647654 -0.28838122 0.4410307 0.7976183 -0.38747886 0.16675566 -0.3216668 0.46318814 0.32198873 0.77688366 0.44997838 -0.08049565 -0.3143648 0.13360552 -0.05990214 0.51759726 -0.37494224 0.55818135 0.24737647 0.038494907 -0.37620384 0.05515607 0.08359134 -0.2006126 0.17389832 -0.2567662 -0.19720607 0.40404096 0.068933465 0.2494269 -0.51056606 -0.5500489 0.31762123 -0.31500882 -0.12365761 -0.70381266 0.56668484 -0.2883763 0.254247 -0.4824311 -0.2548476 0.004137512 0.15438607 -0.22485425 -0.1129731 -0.14991729 -0.17658117 0.024181342 -0.24298893 0.19530465 0.009052377 0.32883555 0.16395396 0.52558184 0.41668496 0.39744255 -0.25944403 -0.2921498 0.64807004 -0.43978062 -0.18269971 0.20377317 0.82744366 -0.150953 -0.21033302 -0.04964869 0.28798515 -0.014415333 0.58822477 -0.72180694 0.18502617 0.19484301 -0.98332214 0.64294463 0.18415327 -0.16628772 -0.38139728 0.1709469 -0.01025575 0.28189042 0.911466 0.11180765 -0.28643027 -0.102494165 -0.41767415 -0.24627301 0.034017738 -0.5650124 0.48376745 0.44680372 -0.5856536 0.114772044 0.24754192 0.041658655 0.05309592 -0.2560107 0.55205005 0.26592153 0.10628159 -0.06593801 -0.34340423 0.30329853 0.39112353 0.264619 -0.17450684 -0.114829466 -0.11926373 0.06031079 0.1122915 -0.8672729 0.50690687 0.070714064 -0.113256134 -0.055352587 -0.5836511 0.23877178
1781 0.16337587 -0.28750366 -0.13249196 0.1018692 0.49270144 -0.0061937864 -0.13038178 0.32504746 -0.38752162 0.3773202 0.04619052 -0.5384991 0.16465509 -0.52360445 0.32122168 0.6684468 -0.18287288 -0.655601 -0.38524938 0.29400474 0.27251792 0.04987682 -0.31419635 -0.10629329 -0.20837402 -0.22332115 -0.4313406 0.020578716 -0.23023435 0.50537646 -0.038664326 0.43594468 -0.32348448 0.4077616 0.47633043 -0.048019934 0.20969461 -0.22921062 -0.2693046 0.19674486 0.16775659 -0.0030617928 -0.08549705 0.47443366 -0.44166592 -0.08437281 -0.37952018 -0.6777195 -0.3146825 -0.22150774 0.08033568 -0.626382 -0.39408132 -0.25444087 0.50242347 -0.020595832 -0.015492329 -0.38644904 -0.30613428 -0.22087993 -0.4838278 -0.14706208 0.3079681 -0.08692892 0.23324697 0.010836323 0.25505564 0.5986146 -0.16426952 -0.027432507 -0.022778759 0.047398962 0.12723769 0.39409608 0.52417934 -0.42959473 -0.45709178 -0.30549654 0.31569222 0.13747281 -0.6949238 -0.66927046 -0.13334891 0.5522814 0.018518709 0.29494187 0.19967695 -0.31675172 0.008113263 -0.3288853 -0.52618605 0.49315313 0.4521298 -0.02943914 0.22937025 0.07963216 -0.5053748 -0.3837392 -0.5729817 -0.2340783 -0.47838667 0.6768094 -0.31359166 0.13541342 0.04069479 -0.60586196 -0.3338528 -0.21383592 0.2936707 0.00078830676 0.3902647 0.36751106 -0.18776037 -0.05713793 0.022613188 0.37145942 0.50541925 -0.39763704 0.15369132 -0.066935554 0.47769308 -0.43732888 -0.062606394 0.48310527 -0.73920745 -0.092171535 -0.48324227 0.025648858
754 0.3822485 -0.09496672 0.337449 0.08330858 0.8411666 -0.10087076 -0.020682476 0.09925964 -0.36701655 0.20688151 -0.054807156 0.096057884 -0.27587143 -0.19489421 0.7469472 0.13948391 -0.39064044 -0.059690073 -0.09326032 0.06672983 0.44676593 0.0329861 -0.47147617 -0.24328446 -0.51850784 0.21435764 0.17609878 0.7816532 -0.06458714 0.18415667 -0.054251146 0.10234956 -0.4771965 0.10398256 0.31985325 -0.11065142 0.15525675 0.15318325 -0.25261995 0.2585761 -0.31900752 0.40154234 -0.22340353 -0.09855615 0.36378533 0.5227358 -0.03168183 -0.083705105 -0.31540677 -0.10203834 0.042268768 -0.58841246 -0.49947882 0.005371632 0.2685341 0.168775 -0.41420388 0.15006788 -0.41093045 -0.12386797 -0.502849 0.047129404 -0.24953943 0.10946099 0.56911516 -0.1506718 0.25849625 0.11824735 -0.31223002 -0.22705902 0.20748137 -0.68628395 -0.29478332 0.46090078 0.20162179 -0.16983657 -0.050153766 0.28009787 -0.06634455 0.45107287 0.2493511 -0.33981314 0.30802906 0.21170288 0.44987696 -0.12244651 0.6266719 -0.87970906 0.2378909 0.5353138 -0.03581263 0.68375283 0.14956361 0.118350975 0.4272566 -0.20668443 -0.06948972 0.11282706 -0.33222273 0.094050996 -0.15303247 0.13894635 0.41876695 -3.7078626e-05 -0.2582846 0.6261927 0.33129314 -0.14921765 0.70161635 -0.3472174 -0.20356748 -0.7692332 -0.35247737 0.012365081 0.011154462 0.33075505 0.17637616 0.0006496862 0.012059443 -0.10942522 0.24368602 -0.48705882 0.1449339 0.47555107 0.065133914 -0.34925458 -0.47291034 -0.10609165
1791 0.4863419 -0.276414 0.6749076 -0.0420371 -0.31414172 -0.4286505 -0.0072552133 0.37924284 -0.13016278 0.23032956 -0.020067902 -0.40275154 0.09405092 0.22937685 0.15987664 0.26782346 -0.4482854 0.46876895 -0.41176578 0.5374329 0.61452436 0.564937 -0.74431205 0.22906688 -0.12764357 -0.3475703 -0.76582825 0.6974507 0.23783569 0.20883347 -0.2655002 -0.09550262 0.019756868 -0.16109194 0.24003749 0.48029906 0.6052222 0.35358956 -0.088789776 0.066991955 -0.61050797 0.29500243 -0.008368289 -0.30526322 0.7390466 0.22262767 -0.6548052 -0.3469994 0.53950405 0.39047906 0.48170006 -0.40234348 0.15860373 -0.04148501 -0.14127296 0.15001746 0.060237672 -0.17278782 -0.5692287 -0.093979165 0.3545234 -0.04626433 0.20747975 0.36032453 0.33328858 0.14684023 0.17070611 -0.14608149 -0.32724515 -0.483534 0.08304424 0.27080524 -0.42592263 0.03458936 0.4500458 -0.3184605 -0.32905853 0.05665581 0.19307445 0.23050618 -0.009427143 -0.49219802 0.27139434 0.6289954 -0.042194664 0.086261004 0.4616487 -0.26502696 0.5802085 0.75199205 -0.2378902 0.19135213 -0.31089544 0.15248893 0.1799616 0.22774306 -0.25728992 -0.276432 -0.29906335 -0.053713348 -0.38845378 0.35134655 -0.10031502 0.04305061 -0.034784004 0.09129445 -0.20821193 -0.24992782 0.15782237 0.1969365 -0.059282433 0.2937905 0.17087044 -0.09425189 -0.2432636 -0.30455548 -0.0607151 -0.30553582 0.2822369 0.39359176 0.1573587 -0.82781595 -0.2927536 0.16522434 -0.20534416 0.3750476 -0.0013439653 0.44357893
1630 -0.2952846 -0.38504937 0.07101298 -0.07560224 0.35947576 0.07749023 -0.5509977 0.3543215 -0.4820332 0.40648144 0.2561588 0.045158826 0.33213323 -0.2778953 0.41833928 0.25004807 -0.2178195 0.055960935 0.3267454 0.4551366 -0.15973127 0.33033183 -0.4018599 0.049274515 -0.54289865 0.29590243 -0.34866688 0.38461527 -0.12658441 0.2123341 0.34236798 -0.21456899 0.48713014 0.46222395 0.24803363 0.45174837 0.23759544 -0.14516032 0.012565833 0.22996064 0.024406523 0.2013316 -0.17162085 -0.44345188 0.5096832 -0.018250508 -0.3800158 -0.4835837 0.21487507 0.39738768 -0.29246163 -0.11260932 -0.013741595 0.2888303 0.6022536 -0.36670908 0.3246661 0.08078358 -0.06859663 0.60170156 -0.61115324 0.7660673 0.45154917 0.024882892 0.6615872 0.054705027 0.30395126 0.25213838 -0.7029344 -0.37000328 0.59222883 -0.038308464 0.15873797 0.22622499 0.25101405 0.034922555 0.00026679566 -0.3298406 -0.045261133 0.32606754 -0.19718167 -0.34210327 -0.60319084 1.1073202 -0.14384297 0.62257445 0.16126661 -0.250433 -0.1476959 0.43630546 -0.3028962 0.4937912 0.28040603 0.30806878 -0.14530511 0.39781573 -0.4108029 0.046418928 -0.090526685 -0.44879723 -0.24698801 0.0050347974 0.083552726 0.15687591 -0.55434036 -0.46919772 -0.10617502 0.29058143 0.33390915 -0.29357743 -0.45385522 -0.120390475 -0.020604532 0.6547577 -0.66160005 0.4293569 -0.3980681 -0.26924852 -0.011666046 0.5696131 -0.11217603 -1.0407331 0.055684164 -0.120613456 0.062834516 -0.0049021807 -0.08561825 0.23415303
1616 0.4587389 -0.18141802 0.19767913 0.073092215 0.24319203 -0.59040374 -0.098388374 0.027812175 -0.12282144 0.31120312 0.22877648 -0.15975828 -0.032220725 -0.21925305 0.34661523 0.4392165 0.1758049 -0.14257595 0.5462709 0.84871984 0.48057634 0.09773768 -0.56951165 0.034538988 -0.28720587 0.3041818 -0.16143106 1.2640027 0.44192842 0.2960201 0.30175552 -0.18532361 -0.13839962 -0.28571254 0.30496264 -0.040669434 -0.6010788 0.19104314 -0.22723824 0.1392987 -0.16230278 -0.028055368 -0.14256135 -0.19312418 0.68078184 0.36347246 -0.2347589 -0.27245846 0.43263936 -0.2805861 0.116479345 0.06640729 -0.27486622 -0.12057976 0.048419848 -0.10945472 0.09665157 0.66968185 -0.27605313 0.3508135 0.0320631 0.05741302 -0.55036587 -0.0984825 0.66903746 -0.24270737 0.05499467 -0.20501748 0.5398945 -0.079469144 0.22178225 -0.11858121 0.2874103 0.49379733 0.6943294 0.13766137 -0.051207386 -0.24908513 -0.49968553 0.512848 -0.5391364 -0.92887545 -0.23847757 0.6876458 -0.034501396 0.07123541 0.019808952 -0.56766903 0.33637398 0.06727986 -0.8084382 0.13121419 0.33565596 0.47955346 -0.26374662 0.4173418 -0.65829736 0.090876065 0.19008057 -0.1809538 -0.7882572 -0.09277577 -0.33731994 0.17333901 -0.23082063 0.24771605 -0.3135124 -0.15500315 0.0658899 0.11215245 0.31576368 -0.19407496 0.015614644 -0.05928125 -0.09173567 -0.033612616 0.837326 0.25607648 -0.02620213 0.26931182 0.30696815 -0.2571023 -0.017422097 0.10443026 -0.39977607 0.30784205 -0.41368985 0.50242895
1743 0.17160279 -0.30143082 0.022370415 0.1469606 -0.11834632 -0.5442404 -0.28043488 0.10110448 0.010797381 0.29390928 0.2796794 -0.060310204 0.10091567 -0.09199276 0.3425981 0.32457522 -0.60665697 0.5954262 -0.202664 0.5278802 0.49339807 0.57902765 -0.55102533 0.72173065 -0.18853666 -0.17721277 -0.16313335 0.5298169 0.029264558 0.08460055 -0.4322598 -0.19096933 0.4173193 0.06982227 0.4400627 0.12783693 0.3334515 -0.09457887 0.11835212 0.4578779 -0.1925354 0.2095238 -0.15558709 -0.21314463 0.19988641 0.1424082 -0.6942875 -0.42593715 0.27689794 0.07914269 0.39691257 -0.12281611 0.04844021 0.009335777 0.03507541 0.41105926 0.21051624 -0.6353473 -0.20470145 0.16442445 0.38939744 -0.36251277 0.19303721 0.018151414 0.108629435 -0.2914083 0.38114208 0.6008368 -0.29876322 0.10107504 0.3358797 0.15403579 -0.34572387 0.25372866 0.3342494 -0.06262704 -0.32275593 -0.10968206 0.30387086 0.37184626 -0.037006635 -0.7635449 0.14916909 0.7718979 0.094029434 0.34522125 0.57983106 -0.28428742 0.5238613 0.41651183 -0.37144205 0.46192783 -0.11470731 0.021439765 0.41701818 -0.0344512 -0.36321348 -0.36727372 -0.3730534 -0.11211259 -0.013228444 0.5026754 -0.022179713 -0.28248617 -0.28513402 -0.139877 0.3215993 -0.34495267 0.046011716 -0.22223768 0.5861605 0.06782651 0.08407002 -0.19197768 0.48261037 -0.4591276 0.03625592 -0.11913383 -0.044200208 0.11016866 -0.10444314 -0.16885266 -0.14923525 0.48299378 -0.29564482 0.09839415 -0.18770884 0.20054317
1498 0.55409503 -0.4445863 0.7645307 -0.28515816 -0.16005088 -0.4292955 -0.49050003 0.21912692 -0.5257117 0.16485038 0.28399825 0.036816616 -0.1349649 0.012168682 0.057933703 0.70677125 -0.1298231 0.2983592 0.14142779 0.4590208 1.0205337 0.37182078 -0.04943408 -0.28317872 -0.12817372 -0.21649942 -0.7300458 0.4135386 0.2970507 0.5240466 -0.001118012 0.6740617 -0.1653247 0.5554415 0.6685016 0.1292927 -0.45420903 0.087649025 -0.19031923 0.12106228 -0.26236627 0.46294215 0.19945008 -0.7621462 0.07977237 0.20450215 -0.5751962 -0.7502307 -0.07738457 -0.2884826 -0.14256518 0.08119212 -0.40511453 -0.28246891 -0.09464133 -0.28313047 -0.17377204 0.24059288 0.10369272 0.24731731 0.093519874 -0.10999914 -0.0668497 -0.10328772 0.5308727 -0.08928357 0.49525544 0.27027828 -0.024050746 -0.35709146 0.23620231 -0.010305228 -0.20145646 -0.047155827 0.13821207 -0.23217145 0.45219672 0.19226958 -0.2792377 0.3335139 -0.77895975 -0.6054818 0.20038293 0.8522222 -0.42849734 0.31408256 0.17711726 -0.86431116 -0.47585356 -0.37617132 -0.2907233 0.103520565 0.099145725 -0.20691772 0.6364341 0.07674487 0.033268802 -0.2543412 -0.21833426 0.68769395 0.24032734 0.2259145 0.26124594 0.19375873 0.23106465 -0.13161348 -0.035602048 -0.29143566 0.23600534 0.3571344 -0.6619063 -0.063642405 -0.41971678 -0.45747465 -0.24467301 0.37550128 0.39223406 -0.16365552 0.5567706 0.002243093 0.42858654 -0.2982593 0.11821602 0.534431 -0.6980025 0.31932765 -0.43751574 -0.06333607
1793 0.3949006 -0.3165644 0.45575362 -0.19936506 -0.10494273 -0.33519986 -0.56159234 0.47929624 0.036859196 -0.034695115 -0.1510885 -0.38240448 -0.012189153 -0.12543744 0.82938385 0.7155884 -0.2579235 0.5916392 -0.3911116 0.6224677 0.43889856 0.503315 -0.5131618 0.076689646 -0.46451023 -0.21314517 -0.24574292 0.18157637 0.35229886 0.33791733 -0.05873415 0.09711375 -0.26708442 0.40569195 0.07610757 0.5606412 0.5480527 -0.00088262005 -0.16228332 0.25785092 -0.50215024 0.06941219 -0.41107163 0.06433643 0.43317637 -0.15846883 -0.5335523 -0.68201023 0.23435938 0.19980891 0.00067059154 -0.32759747 -0.107273966 -0.08708017 -0.0036335406 -0.18126328 0.2097998 -0.21149771 -0.016037922 -0.34136918 0.082223214 -0.18953703 0.24176192 0.5031677 0.022324065 -0.112311915 0.3249818 0.28281018 -0.6438614 -0.13479413 0.1720426 0.47337437 -0.28432637 0.03287061 0.60440487 -0.29516682 -0.6385683 0.30739433 0.010416982 -0.21187377 -0.06264368 -0.6487136 0.49829572 0.9057856 0.0034858254 -0.09415695 0.29263604 -0.627705 0.5619559 0.44021896 -0.4945521 0.6091576 -0.4576468 0.14041165 -0.068238944 0.036441207 -0.38529456 0.13075209 -0.6940437 0.18660673 -0.035301525 0.176504 -0.39516482 -0.55992055 -0.38586858 -0.33047435 -0.2577823 -0.101679936 0.5241995 0.1432403 0.32117596 0.24283528 0.034873456 -0.6053909 -0.069146186 0.1479953 -0.07765112 -0.073261805 -0.14762266 0.29398125 0.093136705 -0.6050411 0.0806058 0.76676506 -0.46604106 0.24016641 0.1691328 0.21947707
1495 0.1013748 -0.44343522 0.41564736 0.33235747 -0.24120542 -0.5543091 -0.57954526 0.3706051 -0.75511634 0.112870336 0.112655036 0.040610347 -0.24524018 0.02481914 -0.13558927 0.3050448 -0.20865344 0.0040702424 0.29203013 0.44767132 0.9480139 0.19291979 -0.29923806 -0.018105865 -0.24836184 -0.1512023 -0.46937588 0.2547127 0.24400601 0.4186715 0.3087021 0.61624134 -0.23770614 0.70214707 0.74439216 -0.030720705 -0.23571093 -0.13058563 -0.17516138 0.5445112 -0.17121431 0.30619237 0.029903198 -0.5106976 0.28348988 -0.10054363 -0.57170033 -0.501604 0.13269183 -0.33826995 -0.13442874 -0.101747625 -0.27256194 -0.27410856 -0.053793833 -0.004241308 0.053379253 0.53093326 0.26629633 0.025553921 -0.39867622 -0.06277042 0.578739 -0.17418803 1.0047358 -0.09647186 0.41058853 0.112539046 0.1478075 -0.73988783 0.10718213 0.16185723 -0.23857482 -0.21806598 0.2294099 -0.3839707 0.49188635 -0.22410618 -0.18224451 0.3869647 -0.88370895 -0.24539822 0.30485228 0.63852876 -0.6677845 0.07537069 0.49679026 -0.92048395 -0.12011215 -0.44845232 -0.5019625 -0.28951433 0.1391975 -0.25868213 0.5384369 0.0202794 0.114722624 -0.2186432 -0.17681596 0.5058745 0.07624438 0.2328901 0.17574485 0.18682878 -0.056912698 -0.22205244 -0.15741777 -0.11920791 0.2786057 0.30164647 -0.53311205 -0.24146831 -0.28333345 -0.49550596 -0.2593723 0.48431355 0.28175333 0.13858101 0.46322915 -0.1439917 0.13024136 -0.32182622 -0.009024385 0.67569053 -0.43309435 0.14084004 -0.273749 0.0043082316
1068 0.4575668 -0.5361313 0.46702152 -0.010712849 -0.039497077 0.30506852 -0.7036538 -0.2735688 -0.66713524 0.22979768 0.007624551 -0.07880491 -0.22842945 -0.8145735 0.44114387 -0.036270905 -0.17663603 -0.07433263 -0.13899931 0.8617826 0.34501877 0.37246242 -0.18979874 0.40609702 -0.71502304 0.16413282 -0.68634176 0.5693573 -0.552954 0.039808806 0.43926424 0.075994216 0.14020172 0.47694933 0.09767688 -0.33736202 0.3494046 0.062499426 -0.04344776 0.04929632 0.046535257 -0.26052392 -0.2801884 -0.13984756 0.59183246 -0.21323536 -0.20007595 0.25146574 -0.4936857 -0.5437471 0.03320942 -0.45606446 -0.037346255 0.062189296 0.506288 0.28023505 0.20958889 0.20504585 -0.83499056 0.4243207 -0.24588016 0.12759507 0.33242607 0.20853037 0.17054664 0.09509699 0.72711784 0.08221663 0.17373668 -0.17714188 0.11966936 -0.33670098 0.569823 0.07229893 0.43106928 0.3072092 -0.3175118 -0.17324594 0.483335 0.031456746 -0.08169692 0.14161393 0.17338097 -0.010035981 -0.47239187 0.55549586 0.35958424 -0.043112457 -0.035259366 0.44170433 -0.15809713 0.3516848 0.49393886 -0.21180683 -0.17714259 0.18731229 -0.5396427 0.15853737 -0.1698829 0.061827466 -0.17985304 0.29141697 -0.36272812 -0.0074422136 0.33259273 -0.5200013 -0.34989515 -0.040590655 0.5779806 -0.47429094 -0.5619725 -0.07528168 0.48473558 0.12452089 -0.09001497 0.57361734 0.17284605 0.3788439 -0.31938434 -0.035322513 0.41467083 -0.48189175 -0.60967094 0.19364287 -0.37064797 0.7794967 -0.40085065 0.054946054
1632 -0.15837128 -0.34981734 0.07386044 -0.031835143 0.35386193 0.10860714 -0.45084584 0.5165104 -0.39971763 0.501233 0.056584504 -0.08716999 0.251793 -0.19519268 -0.008652896 0.020117598 -0.34742683 -0.29020584 0.10675784 0.43130836 -0.06091487 0.03311305 -0.26336664 -0.086766064 -0.48600423 0.1981057 -0.15313372 0.37833107 0.2314459 0.31033486 0.6020616 -0.38854077 0.3711274 0.4951272 0.2404412 0.43478563 0.0075458004 -0.09890892 -0.14048699 0.2997201 -0.1664483 0.06896496 0.20146672 -0.4794233 0.388461 -0.3846596 -0.59518844 -0.60771984 0.111851655 0.31093872 -0.22598599 -0.17757274 -0.16137311 0.37777168 0.27188504 -0.17143866 0.13298678 0.21399726 -0.13465625 0.52308416 -0.68632954 0.74805343 0.45067528 0.07242332 0.6253792 -0.07561454 0.47316638 0.2956469 -0.8930824 -0.19833268 0.29629362 -0.24241316 0.30185077 0.4779001 0.09572272 0.25640538 -0.016266026 -0.26318213 -0.038558073 0.27791157 -0.08048744 -0.5045735 -0.44188872 1.2171875 -0.056556474 0.5356341 0.024188017 -0.12791792 -0.13141061 0.3607853 -0.024225872 0.3663243 0.296689 0.2057344 0.16277409 0.20067808 -0.4177296 0.008124247 0.07152014 -0.42239082 -0.0030731019 -0.008637738 -0.10285125 0.31325883 -0.40648964 -0.20106368 0.012435276 0.29493508 0.35312843 -0.2289276 -0.6400989 -0.19530602 -0.026128124 0.4645635 -0.6514219 0.36238873 -0.28194073 -0.29300722 0.07097055 0.5701928 0.17797229 -0.78613245 0.22928284 -0.23144387 -0.19914266 -0.0068122013 -0.24148847 0.16562644
1732 0.21895339 -0.42212301 0.65429676 0.3563832 0.005760863 -0.84552157 -0.5681906 0.3293734 -0.38394904 0.47347373 0.2800185 -0.01593921 -0.4134069 -0.7692919 0.044187557 0.2232982 0.3224317 0.24428198 0.14700295 0.94644743 0.04902941 0.15584353 -0.31364462 0.20618619 -0.5287208 -0.037406407 -0.4023408 0.49713594 -0.35862008 0.8986518 -0.44907126 -0.023553306 -0.030732442 -0.34326974 -0.054695196 -0.20073494 -0.27824548 -0.06332598 -0.18895301 0.11276232 -0.050126433 0.4718779 0.5262117 -0.36634463 0.004682095 -0.36732656 -0.40743732 -0.8148378 -0.24856819 -0.4288641 0.2629712 -0.59099054 -0.28999567 -0.5677617 0.18366699 -0.36649996 -0.18729801 0.049241636 0.27425689 -0.6439061 0.23907004 0.38362828 -0.15483707 0.027755238 0.7703946 0.055040598 0.12484874 0.2898433 -0.27012902 -0.55358654 0.7974157 -0.23638034 0.41341856 -0.3093353 0.19066437 -0.51096714 -0.45163238 -0.15970902 -0.40675887 0.54675186 0.19312765 -0.4995097 0.17732072 0.298122 0.039217565 0.6873099 0.6482598 -0.22370224 0.33365095 0.77246463 -0.7256534 0.29503545 0.4214611 -0.36071086 0.06032252 -0.004825143 -0.5031702 -0.2979218 0.05453004 -0.6034124 0.09094441 0.14666303 -0.657467 -0.049767237 -0.32236516 0.092156954 -0.48957288 -0.3663291 0.5250333 -0.072026215 -0.18879783 -0.014501111 0.45415753 0.15222037 -0.08899062 0.2296006 0.39382932 -0.13788334 -0.08422806 -0.036018208 0.17905381 -0.13071942 0.01927926 0.07053585 0.013552259 0.32775372 0.053544074 -0.051625244
1617 0.3910945 -0.30940706 0.5801657 -0.08820602 0.27337208 -0.24854362 -0.06725263 -0.059579827 -0.19029379 0.3524979 0.39720315 0.13141619 -0.3191682 -0.3248272 0.45775694 0.35715184 -0.055950157 -0.24616382 0.443929 0.7866223 0.22772124 0.18743655 -0.6239684 0.35669702 -0.20586368 0.35086134 -0.2647749 0.9961486 0.5217675 0.53462917 0.20070824 -0.1472674 0.047862314 0.1113928 0.37226233 -0.20163244 -0.41710064 0.18370423 -0.33572683 0.28282797 -0.44095913 0.0569301 -0.2367673 -0.050869197 0.44585764 0.0014249001 0.14847594 -0.15527827 0.4004271 -0.44072908 -0.13979657 -0.10251325 -0.19912948 -0.21739271 0.02345065 0.006143557 -0.1466813 0.54398394 -0.22836578 0.41048655 -0.12010384 0.05017692 -0.4711601 -0.025344651 0.5682576 -0.18858892 0.011939316 -0.33194837 0.48448932 0.11062882 0.30350405 0.097814985 0.19397722 0.28528157 0.6784222 0.37063116 -0.23862498 -0.42920083 -0.15112975 0.195472 -0.67872494 -0.9204919 -0.29157066 0.498642 -0.14304554 0.10662388 -0.20721559 -0.64401543 0.22648135 0.06685046 -0.47136238 0.3141897 0.2775021 0.40447584 -0.12402634 0.35304695 -0.5578462 -0.1553772 0.16896497 -0.10928407 -1.0005556 -0.1248746 -0.21398708 -0.17399645 -0.38536218 0.5554394 -0.25683913 0.084831186 0.049411546 0.38653153 0.30792338 -0.21954173 -0.19530843 -0.05732777 -0.17710842 0.09885099 0.75714594 0.19673447 0.14932543 0.17635995 0.39466918 -0.5588896 -0.016776461 0.09135714 -0.45511013 0.41985425 -0.38445127 0.54239887
1664 0.6595544 -0.27744672 1.0806396 -0.2207247 0.049197398 -0.06503883 -0.10834204 0.21313691 0.0037876123 0.242966 -0.22092542 0.23554502 0.30450195 -0.14107504 0.29760507 0.62405056 -0.33595392 0.20250577 -0.3457765 0.44381538 0.068614736 0.94058263 0.29827973 0.022740565 -0.48470962 -0.0062708654 -0.3501208 0.47636443 -0.39080277 0.469545 0.3579593 0.15487124 -0.5103704 0.1872971 0.1919259 -0.13702044 0.13008505 -0.2865334 -0.11587109 0.43252552 -0.08395377 0.07440143 -0.55484414 -0.37708136 0.14902925 -0.2504994 -0.054583106 -0.626698 0.5601574 -0.2531686 0.27642366 -0.38641897 0.01578454 -0.066428445 0.28195095 -0.23328072 -0.21768941 -0.1817265 0.08040627 0.19377941 -0.07431066 0.017913716 -0.09429477 0.22771691 0.26963502 0.5933669 0.2541208 0.39888322 -0.2771403 -0.24571091 0.5442562 -0.6827733 -0.4103687 0.13595125 0.70575726 -0.07428799 -0.31327477 -0.1345017 0.056130495 0.0024893614 0.48929054 -0.5532466 0.119659066 0.24557506 -0.9748707 0.6195362 0.3882625 -0.24686189 -0.5108471 0.21522005 0.012215662 0.33996704 0.82182616 0.08672012 -0.17594478 -0.15308015 -0.32805124 -0.36536673 -0.05081087 -0.52351743 0.36643946 0.40652072 -0.64436764 0.15118697 0.18286762 0.0527015 -0.040987894 0.02354564 0.5695233 0.33372632 0.15240559 -0.17910509 -0.27921987 0.3678546 0.4978871 0.35163742 -0.2705189 -0.23895216 -0.2300142 0.0047183293 -0.0038189734 -0.82514024 0.2900608 0.14646561 -0.35534108 0.029599627 -0.40039274 0.20468406
1645 0.24025886 -0.26996157 0.62602586 0.4389721 0.3580499 0.03418371 -0.4248836 -0.033557847 -0.33465108 0.36926973 -0.09629168 0.044216566 -0.5018675 -0.22093621 0.16512255 0.36715835 -0.5314556 0.09197519 0.04678584 0.4595936 0.5562847 0.15774754 -0.43336913 0.16546172 -0.06357737 -0.019481864 -0.5924826 0.3567202 0.4634488 0.31146517 0.21945228 0.0488537 0.47329623 0.2588088 0.7276237 -0.6001803 -0.39661592 0.13456276 -0.39306983 0.23566078 -0.53086334 0.005545128 -0.31826928 -0.26279515 0.065396756 -0.0999005 -0.16302793 -0.22537778 0.19387954 -0.59272265 -0.22046205 -0.2736435 -0.41295826 0.13194187 -0.25869393 0.25432047 -0.28929 0.171331 -0.48044276 0.4888844 0.041056864 0.5883261 -0.1000119 0.19826123 0.36482045 0.34216514 0.002391495 -0.10396466 0.39979294 0.0028869726 -0.15686218 0.13173413 0.31886554 0.5060163 0.6839726 0.30070913 -0.7754493 -0.6325407 -0.013429215 -0.23661311 -0.42259255 -0.6363122 -0.07507687 0.3491381 0.27158636 0.2187004 -0.1240344 -0.28027457 0.23166022 0.12863444 -0.27030078 0.32535028 0.5747956 -0.034484517 -0.09736079 0.09450103 -0.21552898 -0.13013136 0.0339505 -0.21384725 -0.6704103 -0.24720421 -0.12843667 -0.30201793 -0.7677232 0.38252455 -0.45504007 0.19949134 0.17857184 -0.01248902 0.3926435 -0.31360203 0.17433809 -0.24531579 0.2103525 0.27395552 0.4792927 0.10168686 0.13819814 0.12957874 0.45957664 -0.6078857 0.3018142 0.0988861 -0.14554834 0.10163179 0.0124595435 0.14160511
1487 0.5352743 -0.38449427 0.37777942 0.41175947 0.28671104 0.45423937 -0.31520134 -0.18369788 -0.5775952 0.10537744 0.5533281 -0.22779062 -0.19681016 -0.30924484 0.2293541 -0.078791685 -0.54873896 0.44243908 -0.20128119 0.28698152 0.35693318 0.5205883 -0.04665478 0.6364194 -0.643197 -0.040444497 -0.15599138 0.8347237 -0.34353712 0.39809984 0.16655543 -0.00014489694 0.20420307 -0.13948874 0.25130957 -0.29045463 0.03487386 0.12186264 0.04823403 -0.15621126 -0.23744969 -0.09897991 0.024931535 -0.25979173 0.17053461 0.10610949 -0.2691397 0.14825839 -0.010363873 0.044427525 -0.64901304 -0.49965304 -0.36332202 -0.3176687 0.3546877 0.3687204 0.058499273 -0.26283243 -0.29417384 0.32118264 -0.1508094 0.33044454 0.17014001 0.10387505 -0.12885852 0.24572396 0.21014613 0.09997823 -0.31030506 -0.3736355 0.36911622 0.10152914 0.40976048 0.14210106 0.5826869 -0.07259714 -0.01085953 0.38357785 0.15579206 0.28874817 -0.5056673 -0.0049276687 0.09157119 -0.17872484 -0.6037346 0.70401305 0.21511051 -0.57943845 0.11431988 0.51490515 -0.33051696 0.2795372 0.48987496 -0.10891385 0.42998782 0.0626113 -0.5131879 0.09022635 -0.5202294 0.38478288 -0.2391104 0.325408 -0.2818183 0.50304526 -0.09781759 -0.22525832 -0.32596758 -0.34012806 0.54141027 0.18568225 -0.8282085 0.05335184 -0.29941162 0.48168343 0.22119571 0.44843292 0.030978203 0.21228819 -0.15298155 -0.02742361 0.15728186 -0.345703 0.03575923 -0.042158473 0.27909717 0.75082296 -0.47844285 0.5026474
705 0.23743394 0.19727623 0.30836454 0.39792502 1.0083563 0.01586964 -0.2538178 0.30980584 -0.751624 0.41298556 -0.097709425 -0.21699642 -0.29935127 -0.5982652 0.32750314 -0.0007299782 -0.33678472 0.35667095 -0.25663581 -0.28462005 0.49212956 -0.013612922 -0.67766976 -0.3087434 -0.71720153 -0.22357343 0.07363985 0.9701228 -0.23992169 0.9514533 0.2423976 0.05757141 -0.42970207 0.16827494 0.09792493 -0.054051682 -0.022453554 -0.16010495 -0.24838811 -0.3573851 -0.48093152 0.27590284 -0.34109613 -0.017636957 0.103755586 0.3543446 -0.48300853 -0.5715181 -0.41723236 0.044424232 0.1093251 -0.14745194 -0.2046691 0.035729855 0.1566201 -0.4952799 0.1144018 0.20375489 -0.5938315 -0.08235634 -0.3940112 0.1580751 -0.036151502 -0.14045936 0.49723357 -0.33752477 0.071116924 0.58094376 -0.17993714 -0.31578428 0.22229108 -0.31642905 -0.2005718 0.31228465 0.30247512 -0.40394777 -0.094479 0.35935923 -0.26434538 -0.0022833783 0.3072423 -0.1615802 0.6172583 0.447181 0.34048185 0.13369901 0.50374824 -0.6222933 0.53235275 0.17386752 -0.30674627 0.36754447 0.023358883 -0.026020233 0.22970618 -0.20161177 -0.292611 0.4846367 -0.28004616 -0.23043303 -0.31697187 -0.0195134 0.107548766 0.530993 0.16330156 0.3986709 0.25612706 -0.14692935 0.4436245 -0.35819873 0.13532566 -0.6935132 -0.21833417 0.16832946 0.3102511 0.18051773 0.2744887 0.21602799 -0.134276 0.4632248 0.13894251 -0.90919167 0.37573493 0.51960677 -0.20395929 -0.22098477 -0.48841518 -0.28581733
1594 0.01225455 -0.3711509 -0.26373923 -0.0816994 0.27898434 0.14252174 -0.13126189 0.17675681 0.12133668 0.07880972 0.014953757 0.3057722 0.09017662 -0.32375252 0.23513351 -0.32293028 0.0483109 0.2647916 0.21662788 0.2661791 0.6461378 0.2715682 -0.23684809 -0.44611773 -0.7202601 0.16480453 -0.7691523 0.6927678 0.25734264 0.2866011 0.16189525 0.26802334 -0.025200348 -0.3175053 0.68217313 0.24130249 -0.0025872695 -0.1871407 -0.24692395 0.5703658 -0.100764796 0.0060995324 0.03493478 -0.76832604 -0.08792975 0.04250978 -0.1611928 -0.39762545 0.22696687 -1.4401106 -0.20572232 -0.2859484 -0.3409166 0.4759561 0.67684966 0.21159114 -0.42235947 -0.37553126 -0.14233479 -0.34949133 0.43151486 0.049787853 0.13396946 -0.42575106 0.18982889 0.5034331 0.33829117 0.11580987 0.12649964 -0.3795525 0.15926404 -0.5355127 -0.8263956 -0.30723986 0.7408515 0.09566268 -0.21151191 0.4446758 0.28508213 -0.5244281 -0.63301474 -0.7187899 0.22575949 0.36242488 0.4456627 0.91443413 0.16886778 -0.06911999 0.15069348 0.7802568 -0.07293293 0.50848716 -0.10089069 0.261761 0.17888233 -0.37474868 0.01309929 -0.3301407 -0.6336057 0.29883626 -0.7038297 0.41351283 0.16909942 -0.3647118 -0.17688246 -0.031313173 -0.34829944 0.10582456 0.6424228 -0.36245555 -0.870564 -0.2474547 0.41701677 0.15153894 -0.16478638 0.21784706 -0.28438047 0.024755707 -0.21392712 -0.0538708 0.2603029 -0.66581786 -0.1641659 0.0900357 -0.4903931 0.1327992 -0.14494169 0.16732833
1584 0.21304789 -0.23668283 0.056731116 0.57820815 0.4616482 -0.14400987 0.11870526 -0.12741295 -0.87695736 0.60899794 -0.38443226 -0.22754425 0.050962172 -0.20209803 0.54456794 -0.10501366 0.45524374 0.30217654 -0.053103514 -0.00090022275 0.5437848 0.38067442 -0.64828914 -0.3307902 -0.072776474 0.20944926 -0.07273426 0.5992879 0.3028241 0.5235161 -0.059575513 0.5743819 0.20216617 0.5280803 0.882115 0.041891746 0.16675499 0.33561894 -0.17308044 0.0533224 0.055884287 0.67424685 -0.12184114 -0.2876576 0.20551535 -0.3745053 -0.54477173 0.023437759 -0.24383754 -0.35425568 0.0104731545 -0.26825127 0.04689455 -0.039912514 0.4159172 -0.8873658 0.23910072 0.20070554 -0.45682013 -0.5386999 0.14441024 0.3392691 0.23635186 -0.6149165 0.3705729 -0.5639928 0.20800792 0.2915603 0.029431038 0.12989704 0.07484432 -0.3944116 -0.5121235 0.20457238 0.07903541 -0.4788175 0.061029837 0.30835965 0.06283082 -0.020113902 -0.29856348 -0.21944979 0.0867665 0.37591353 0.35300168 0.22240794 0.3635708 -0.3072648 0.41317782 0.49004695 0.24622846 0.6307093 0.12766945 0.27756152 0.29247203 -0.08357308 -0.25154757 0.28836554 0.24795969 -0.061492383 0.0065234704 0.3694126 -0.10696565 0.24264088 -0.29460743 -0.009603083 -0.48300585 0.16565663 0.6943263 0.1313866 -0.047349166 0.2535422 0.35537246 0.18865594 -0.0434142 0.049230136 0.4629451 0.4044536 0.34056318 0.113896884 0.04019518 -0.79272294 0.07286888 0.30106193 -0.48632824 0.29225013 -0.49066138 -0.026005767
1746 0.31837338 -0.09758921 0.3468544 0.29848883 0.4377514 -0.12323075 -0.08237054 0.5981654 -0.53847003 0.33574826 0.26216906 -0.39967564 0.46781555 -0.54330003 0.37485513 0.5402394 -0.15943258 -0.60838854 -0.2251535 0.34235048 0.27613395 0.22150733 -0.30691758 0.07556161 -0.24821578 -0.29759547 -0.4299496 -0.051122803 -0.2752584 0.53176767 0.14540754 0.22787084 0.1508624 0.5556296 0.3249665 -0.20076603 0.4533379 -0.19458212 -0.07062522 0.14998484 0.17290887 0.053207412 -0.09836298 0.32090604 -0.4712119 -0.101727836 -0.4428501 -0.46162033 -0.30682486 -0.36990643 0.042794302 -0.59208834 -0.3110175 -0.145973 0.43832752 -0.1995537 -0.10656546 -0.6212625 -0.52155113 -0.20706207 -0.2788822 -0.25011635 0.23989074 -0.024279734 0.35030177 -0.20237702 0.37782237 0.54031813 -0.5022204 0.062406145 0.049398623 -0.14984396 0.26555336 0.38833767 0.64323133 -0.31580022 -0.12131025 -0.6505847 0.23842695 -0.014632657 -0.6580947 -0.60843086 -0.15266097 0.5108028 0.11983086 0.07585048 0.19100605 -0.32930303 0.31651345 -0.3914123 -0.6920902 0.3798384 0.30010194 0.07813701 0.12546001 0.13234586 -0.40758964 -0.38224062 -0.4387416 0.06850699 -0.44603258 0.6849004 -0.27018824 0.053264316 -0.057120785 -0.9161026 -0.32751507 -0.24145529 0.41154462 0.08298128 0.3177392 0.22707571 -0.17610683 0.099330194 0.26501235 0.36616093 0.29971164 -0.22748584 0.16690835 -0.1359999 0.5185017 -0.46600735 0.24191737 0.4825116 -0.7515826 -0.13826439 -0.50348556 -0.19852097
691 0.00065677287 -0.38969928 -0.39419398 0.2586383 0.9749605 -0.06708655 0.05159219 -0.25027934 -0.8059999 0.20377722 -0.052924085 -0.11331046 -0.14014566 -0.15146886 0.6349796 0.32093188 -0.019092353 -0.20883231 -0.4076016 -0.16928855 0.36659223 -0.15216793 -0.8540717 -0.60823053 -0.22898877 -0.10056817 -0.2593339 0.9066655 0.31942573 0.81277364 0.049888972 0.7799012 -0.20784797 0.16966766 0.39557064 -0.0011728138 0.07157889 -0.066907614 -0.18488944 0.038158868 -0.08743635 0.64250433 -0.031303756 0.03834382 0.24143198 0.22980048 -0.4254841 -0.1463077 -0.19573061 -0.26044416 0.3088157 -0.60465 -0.22894554 -0.0008359897 0.11088541 -0.26040134 0.33571988 -0.12163773 -0.20786855 -0.21664488 -0.20971666 0.26145613 -0.031754278 -0.3814486 0.23999135 0.10167303 -0.07632679 0.4414817 0.18307428 -0.28637362 0.24087496 -0.51829123 -0.3194189 0.06347818 0.0685667 -0.26080605 -0.19206202 0.1840407 0.47432056 0.116199166 0.150956 -0.2458251 0.2353346 0.63345903 -0.093072556 0.2615102 0.22054999 -0.4085101 0.048275694 0.3558557 -0.16992588 0.637611 0.48230308 -0.09616966 0.1853 -0.13914998 -0.3377011 0.065421246 -0.115993604 -0.577112 -0.2704745 0.1297526 0.10711525 0.4274248 -0.13112645 0.06738153 0.2282074 0.12425452 0.6556201 -0.21167842 0.11357074 -0.10184924 -0.47649187 0.038241852 0.21771684 0.013593268 0.611975 0.20667192 0.09819151 0.2710557 -0.06487639 -0.6522143 -0.25773278 0.35601494 -0.21155865 0.06845535 -0.3889624 -0.32071918
1490 -0.2604676 -0.1948678 0.4069578 0.40677586 0.16670881 -0.009361945 -0.6810738 0.05559315 -0.5134905 0.08736357 0.04697334 -0.08139424 -0.41074538 -0.008870863 -0.16012578 0.64792717 -0.33529586 0.078307115 0.27275017 0.33201727 0.99221206 0.110567644 0.013823832 0.14468771 -0.15295139 -0.094547644 -0.66300285 0.26944116 0.1698929 0.42331457 0.48367316 0.2103798 -0.22556077 0.55808455 0.38801137 -0.118970044 -0.17810115 0.26905248 -0.042453986 0.81400144 -0.15636197 0.42395592 0.046482146 -0.7244486 0.62834305 -0.115953274 -0.6672235 -0.3235972 0.24938837 -0.51874584 0.045874108 -0.012256176 -0.32132632 -0.03200333 0.0392689 0.015158377 0.038961325 0.57978797 0.3159884 -0.05139874 -0.41596282 -0.27007288 0.5078499 -0.0566415 0.86650676 0.0070193955 0.5286805 0.06638382 0.18292996 -0.67352414 0.029863382 0.10203031 -0.053119462 0.33911914 0.19802347 -0.1556709 0.5003776 -0.06898866 0.40365893 0.2818267 -0.8190955 -0.25823435 0.069766514 0.57732576 -0.561707 0.20182812 0.5078051 -0.59539 -0.009200946 -0.4131268 -0.73764765 -0.16343287 0.16604757 -0.18457784 0.26625544 -0.058184322 -0.11555865 -0.07160011 -0.2548481 0.60178196 0.048047274 0.2572496 -0.2765469 0.33734733 0.04335498 -0.32346976 -0.042792115 -0.2391933 0.1412839 -0.11407156 -0.26288188 -0.25699013 -0.34084812 -0.50195074 0.11266934 0.24379659 0.3663119 -0.10660538 -0.040429644 -0.086443685 0.05074572 -0.5152009 -0.03720331 0.54044694 -0.24563463 0.053613774 -0.4461775 -0.19190425
732 0.0743997 -0.021670707 0.7214334 0.67763644 0.63985664 -0.27825403 -0.13944075 0.29597667 -0.52761686 -0.03695303 0.25406042 -0.43262538 -0.3793768 -0.7006091 0.04166406 -0.025624624 -0.6615437 0.42000085 0.0042955675 -0.36169824 0.42394435 0.34734777 -0.31296304 0.20393643 -0.53526354 -0.18181668 0.123469144 0.5353575 -0.2205644 0.90351427 0.4812415 -0.32194677 -0.341324 0.054480974 -0.1785079 0.14095321 -0.22885107 -0.17024282 0.20122583 -0.34360433 -0.37113568 0.01705634 -0.27366903 0.1488641 0.16031192 0.12094817 -0.31705266 -0.26882392 -0.40428743 0.2595611 -0.47081363 -0.28320763 -0.17538041 -0.13751715 0.1720779 -0.27155632 0.1666592 -0.040038485 -0.33827525 -0.019036997 -0.33021158 0.037596624 0.31469542 -0.23652323 0.10377712 0.22954813 0.047606304 0.420707 -0.4177473 -0.063079156 -0.12811294 0.0076398514 0.32142526 0.35460657 0.25886363 -0.041106027 0.14653134 0.41243473 -0.23808876 -0.033545915 0.36258593 -0.42890343 0.18104677 0.40620676 -0.0059495624 0.42050007 0.5597507 -0.7486749 0.27157295 0.3972365 -0.4473948 0.38228482 0.28986973 0.015000253 0.22580302 -0.16681229 -0.42966738 0.5351188 -0.3844857 0.04922083 -0.36182603 0.28847644 -0.0035271882 0.16495043 0.2037036 0.44379175 -0.41058186 -0.34360725 0.17492688 -0.27193427 -0.06708485 -0.61622113 -0.39327404 0.31019667 0.49837893 0.36787164 0.05600748 0.14598933 0.1628367 0.24568711 -0.0030741426 -0.71040136 0.14278758 0.09355397 -0.032317396 0.15195853 -0.2450174 0.28661415
1758 0.3301529 -0.7188626 0.37751138 0.5240329 0.18041486 -0.36882916 -0.5038038 -0.071140714 -0.6033599 0.31883147 -0.012234013 0.44280726 -0.6494729 -0.53090185 -0.17006901 0.20518205 0.16150595 0.29295456 0.26461565 1.0878468 0.08588279 0.16474621 -0.21171387 0.19330846 -0.16239153 -0.0304358 0.023451792 0.23610233 -0.27461755 0.8917596 -0.6198564 0.23014157 -0.06510551 0.05478356 0.19502479 -0.06574025 -0.12064143 -0.19162196 -0.18444206 0.2557392 -0.0905188 0.15053049 0.31939667 -0.52830744 0.016070308 0.020088717 -0.47036535 -0.5194724 -0.50065696 -0.41883296 0.18397832 -0.1690354 -0.43834734 -0.36735454 0.062410995 0.004641326 -0.08640512 -0.03341929 0.5337382 -0.54414314 0.10443994 -0.023219727 -0.18279603 -0.23731045 0.542646 0.1326163 0.24385886 0.268488 -0.5874094 -0.45507157 0.39246747 0.037442554 0.16905612 -0.06866336 0.1517517 -0.12517318 -0.3197516 -0.20800056 0.027769983 0.68541324 0.1432171 -0.5516121 -0.02129521 0.7264531 0.111746624 0.6651067 0.71053046 -0.027110733 0.5274773 0.66156965 -0.34336898 0.006238983 -0.013009989 -0.4113621 0.13755788 -0.09734583 -0.40816486 -0.060086314 0.19850357 -0.6493503 0.17317952 -0.050008584 -0.45763513 0.31575215 -0.3188052 -0.063795365 -0.18604791 -0.31265053 0.34806788 -0.24593502 -0.09870035 -0.04795506 0.306826 -0.12110205 -0.0033735977 0.33280832 0.088401176 -0.31996748 -0.46734473 -0.012527225 -0.09592283 -0.28094774 0.039288502 0.19586788 -0.13489129 0.22188057 0.17178333 -0.018593445
1774 0.31828544 -0.32469338 0.6347035 -0.22801006 -0.15532778 -0.6120485 -0.4682005 0.25110388 0.23686503 -0.1535291 0.0988248 -0.3387637 0.13665606 -0.23792166 0.22474515 0.20288143 -0.6474304 0.65703905 -0.1236155 0.58777285 0.5626181 0.7028056 -0.6177077 0.25878933 -0.15733519 -0.5981935 -0.67201954 0.42441744 0.2241152 -0.07062566 -0.43513379 -0.12191635 0.21099049 0.3234457 0.3920211 0.6432506 0.4506744 -0.018076094 0.25343135 0.23391643 -0.36769202 -0.09134321 -0.21105301 -0.27821225 0.38790253 0.12043914 -0.6090379 -0.6063006 0.5133187 0.09508812 0.5498765 -0.19844016 -0.1434914 -0.019332724 -0.04694053 0.18663234 0.20712097 -0.27763247 -0.31491452 0.10091041 0.22243553 -0.30511042 0.47530696 0.24901624 0.29229176 -0.071392626 0.17917138 0.25093782 -0.13918275 -0.053762544 0.21744592 0.06937364 -0.45889127 -0.22643574 0.4281384 -0.15034719 -0.10883314 0.16696352 0.3565161 0.37410423 -0.106825806 -0.26566812 0.41108286 0.8882213 -0.14353155 0.14986823 0.23115852 -0.21341129 0.6710003 0.7409331 -0.27908912 0.45217234 -0.46313104 -0.020265903 0.21305406 -0.021449145 -0.20450868 0.12009975 -0.12643057 -0.011973631 -0.13189043 0.5055385 -0.03292381 -0.20558602 -0.31851178 0.0760842 0.12521936 -0.46182874 0.49362335 -0.097841166 0.1152221 0.08130372 -0.1206271 0.011412623 -0.0833018 -0.3521284 0.0075313724 -0.073522225 0.06399889 0.19820267 -0.08788832 -0.40457806 -0.14252225 0.19143537 -0.146101 0.4215061 -0.2153977 0.21988183
1705 0.6486754 -0.31090176 1.0852276 -0.32942623 -0.08370805 -0.42895368 -0.357126 -0.08518218 -0.13093054 0.33727908 0.064279005 0.23188236 0.19306792 -0.2729019 0.5564068 0.80694455 -0.3302725 0.05287999 0.16722715 0.3078694 0.1357895 0.9519101 -0.290615 0.13787384 -0.6545913 -0.34538594 -0.37144607 0.4042811 -0.42896226 0.573738 0.49700347 0.20967038 -0.7811991 0.2028995 0.34474233 -0.45343325 0.23555471 0.006046982 -0.07340553 0.41229355 -0.13631299 0.096404746 -0.5055066 -0.35245928 0.031078234 -0.21474029 -0.11689767 -0.6971544 0.20102347 -0.060021542 0.17256653 -0.7052644 -0.14286956 -0.22412853 0.5089114 -0.17179081 -0.2952518 -0.48123556 0.11250723 0.29014966 -0.06701248 0.09653395 -0.14161526 0.034217257 0.33944353 0.28073013 0.0080487775 0.097323015 -0.071764015 -0.34751773 0.30507645 -0.7209666 -0.2598318 0.34955236 0.20191456 -0.15947422 -0.1006821 -0.077142455 -0.12710506 -0.26410642 0.3513458 -0.44911546 -0.049357522 0.44679534 -0.7747321 0.5478967 0.2492768 0.15452383 -0.5394219 0.08748399 -0.13517353 -0.068679206 0.5604602 0.063471265 -0.37846357 -0.5102775 -0.40076128 -0.4857257 -0.19512604 -0.22412749 0.11478483 0.19650431 -0.54127324 0.20118806 0.1589657 0.060320232 -0.008955456 0.09752312 0.31894848 0.085553706 0.045565624 -0.22318287 -0.1407859 -0.1742875 0.29252845 0.5803526 -0.5097833 -0.093801275 -0.23263898 0.11248303 0.0021777293 -0.8337537 0.5256792 0.011685934 -0.3447863 0.20243798 0.004627058 0.052340236
684 0.11073707 -0.05759685 0.20198102 -0.048296712 -0.17121908 -0.52315134 0.33518228 0.797772 -0.25148052 0.3422557 -0.0827671 -0.32282504 -0.24120677 -0.36184892 0.4400082 0.1189641 -0.4170707 -0.06733778 -0.15184748 1.1465436 0.1290074 -0.06095999 -0.57126427 0.11098786 0.089031145 0.09566889 -0.39661717 0.0727567 0.19504179 0.37647238 0.30957282 -0.33821478 -0.092112996 0.015308113 0.6208519 -0.24317567 -0.4674235 0.10466428 -0.24399248 0.25018415 -0.024768649 0.12531462 -0.4445856 -0.4676038 0.7155173 0.20843221 -0.14055946 -0.37426946 0.26552078 -0.5162498 -0.24844724 -0.3140009 -0.39028877 -0.534414 0.63831025 0.20521888 0.40313366 -0.40281752 0.05474627 -0.02155018 0.0454215 -0.32475445 0.37467766 -0.8100157 0.11216192 -0.44551107 0.2698504 0.051683042 -0.84464705 0.1673679 -0.14624439 0.045202248 -0.6007234 0.109508365 0.12883002 -0.08440879 -0.16219668 -0.1127809 -0.10953744 0.17810242 -0.43413836 -0.44329372 0.70588154 0.9241921 -0.22301519 0.48546842 -0.21120305 -0.07366738 0.13176918 0.124839984 0.110202454 0.12495691 0.50424606 0.47113314 -0.2929299 -0.23209545 -0.6113564 0.12405528 -0.034131486 -0.19599319 -0.22649918 0.79368967 -0.41784832 0.25739902 -0.02013895 0.010963566 -0.071957536 0.20243724 0.4487227 -0.4753396 -0.3348655 -0.7319025 0.2893829 0.16019928 -0.022534255 0.27935 0.46887848 -0.5606475 -0.1295218 0.23162264 0.05098807 -0.66209793 0.07488646 0.28661054 -0.32514617 0.6462091 -0.037717894 0.13890894
1050 0.8011117 -0.425992 0.25076324 0.21603703 0.33942208 0.31032538 0.23588426 0.096634895 -0.9126468 0.24497785 0.08148369 -0.2094683 -0.043740332 0.0016991114 0.31831095 0.0938556 -0.6130579 0.43414763 -0.18047161 0.87156457 0.45866892 0.4010665 -0.01968856 0.49258488 -0.38682294 -0.1610617 -0.36373907 0.5967354 -0.20425873 0.10840051 0.58340037 0.429498 0.37317133 0.16664341 0.023893112 -0.21160045 0.28055617 0.09882417 -0.4878472 0.3331083 -0.45452777 -0.28146112 0.021617984 -0.36011454 0.26065484 -0.020563306 -0.38834408 0.08837443 -0.36058342 -0.8106869 -0.00537139 -0.17720093 -0.59229064 -0.2392613 0.13963753 0.20294079 0.17227441 -0.39392632 0.114968486 0.1504693 -0.44310382 0.2832535 0.036729135 0.50701344 0.08472111 0.53683156 0.106647775 0.35223985 -0.04056748 -0.15037087 0.3226032 -0.30747998 0.26547104 0.30879572 0.5174222 -0.3579875 -0.3053322 0.19174232 -0.015339958 0.5270151 -1.0495622 -0.32588488 0.27690202 -0.13849121 -0.13849717 0.6090053 0.19795422 -0.5263409 -0.017443793 0.46602905 -0.55471313 0.4411085 0.1263714 -0.14357993 0.06207247 0.030135771 -0.23702766 -0.034657557 -0.024668252 0.10684874 0.15376893 0.071688674 -0.34233087 0.20707566 -0.16263339 -0.26511154 0.09659078 -0.110488884 0.4894148 0.6608948 -1.0476308 0.45140204 -0.04514774 0.4004323 0.32974795 0.36896715 0.08528356 0.5000629 -0.24115355 0.38059193 0.1330577 -0.08506161 -0.34669748 0.14980826 0.27966037 0.44786492 -0.025831822 0.122631595
1704 0.43711534 -0.55047345 1.277537 0.105515845 -0.4657983 -0.45712405 -0.27222225 -0.11983197 -0.013987284 0.41570142 0.245615 0.37025183 -0.018302308 -0.45432866 0.48385185 0.61634 0.0057463166 0.268738 0.45994437 0.020233674 0.21656781 0.9632709 -0.48247322 0.06706048 -0.49422488 0.05380339 -0.46613184 0.4422692 -0.009326689 0.46037748 0.5014987 -0.18768154 -0.80425304 0.67030823 0.3615733 -0.64575833 0.22884831 0.1885804 -0.2065323 0.19728722 -0.14812323 0.012500368 -0.37562555 -0.51880205 0.23612139 -0.34060264 -0.5147457 -0.56985563 -0.0058081113 0.09621774 -0.045367826 -0.7896235 -0.31684828 -0.17418185 0.31513113 0.15405476 -0.014393275 0.085796155 -0.10414321 0.09658689 -0.075783536 0.10559258 -0.0055567427 -0.43648165 0.519537 -0.11390487 -0.02834349 -0.06087871 0.15843421 -0.5295932 0.31684664 -0.67806363 -0.124728374 0.41936836 0.2316165 -0.29763523 -0.049304396 -0.031138223 -0.15550496 -0.50042415 -0.20211871 -0.5254992 0.043514926 0.8944334 -0.19200416 0.560324 0.3962301 0.05959066 -0.81368035 0.1217761 -0.24566533 0.085912004 0.49984065 -0.057484634 -0.23148061 -0.7208098 -0.076032944 -0.7249384 -0.2038536 -0.015265591 -0.10222176 0.347098 -0.091873035 0.5384076 0.02555552 -0.081085585 -0.46467668 0.34743562 0.048476882 -0.3895791 0.34875074 -0.24829367 -0.16564196 0.028813375 0.4129261 0.55492693 -0.13327695 -0.3223278 -0.305777 0.32593265 -0.23895651 -0.42213446 -0.004668149 -0.057148896 -0.56190526 0.49085662 0.41961727 -0.25486293
1764 0.045935713 -0.25614223 0.22521728 0.24661463 0.36758405 -0.1495367 -0.03338658 0.5111587 -0.6756529 0.22787705 -0.06502801 -0.6723153 0.5566015 -0.62590855 0.35713917 0.46662194 -0.22661696 -0.68461823 -0.12440985 0.4430863 0.33738717 -0.00036380155 -0.21835299 -0.07615108 -0.14624359 -0.10942334 -0.34708926 0.095975034 -0.46803474 0.4474968 0.16081914 0.04163334 0.15379247 0.3377197 0.39851964 -0.41918752 0.20651713 -0.29160053 -0.14902963 0.30290246 0.033314615 -0.055579096 -0.17572598 0.30511984 -0.4134736 -0.056784637 -0.62273747 -0.4427956 -0.452856 -0.34249908 0.026107507 -0.50682473 -0.37192786 -0.116417184 0.3198134 -0.104950614 -0.21245019 -0.65016216 -0.30218402 -0.26574317 -0.24726926 -0.18292378 0.25647423 -0.19005331 0.32846954 -0.24578257 0.2509002 0.62643075 -0.54018885 0.07298572 -0.05138743 -0.21617173 0.14268333 0.40395933 0.70261455 -0.46754646 -0.2678177 -0.46259862 0.44714385 -0.11338871 -0.72080916 -0.5891135 -0.1030631 0.51356745 0.27122337 0.23457345 0.29614973 -0.23142421 0.035354372 -0.30424908 -0.58811116 0.6452858 0.52786887 -0.089757375 0.14701349 -0.01861118 -0.37673333 -0.25648603 -0.59173876 -0.12763582 -0.689791 0.6644034 -0.1439059 0.105952345 0.0226495 -0.67701703 0.09425183 -0.11605253 0.46493655 -0.023211256 0.34729654 0.3052668 -0.25425148 0.17084341 0.24100453 0.5416764 0.40150863 -0.0091849165 0.1202226 -0.078927614 0.5462592 -0.345799 0.13925599 0.54497665 -0.8442511 -0.13743494 -0.34415483 0.0014479938
1477 0.59539795 -0.70956993 0.07202659 -0.098161906 0.10400235 0.36306527 -0.26225045 -0.17905731 -0.4113828 0.20644607 0.25667313 -0.23867252 -0.440633 -0.5429905 0.37629548 0.01598211 -0.14479718 0.15793295 -0.23710524 0.5646381 0.3129058 0.23204094 -0.32853082 0.46458262 -0.7075748 0.15211864 -0.64573246 0.5343813 -0.43645898 0.34304276 0.060274687 0.17454815 0.14299193 0.018436009 0.31414315 -0.11443555 0.23905405 0.0699666 0.14362898 0.24058694 -0.07088262 -0.07948289 -0.33863303 -0.29027465 0.53096247 0.037074383 -0.35359246 0.087109834 -0.41885874 -0.3405065 -0.25913787 -0.15288725 -0.13401407 -0.09069216 0.24369486 -0.09761164 0.20504497 0.057054862 -0.54165196 0.46745667 -0.30521813 0.06294329 0.3198279 0.20964986 0.045483585 0.23147266 0.27387494 -0.07890671 -0.038905915 -0.35854712 0.32960775 -0.4692511 0.40081978 0.14256406 0.6628673 0.04542021 -0.25226438 -0.22222209 0.41769248 0.19935504 -0.3649529 -0.02207761 0.3569492 -0.060012 -0.051198438 0.83783615 -0.08469342 -0.16648865 -0.43721297 0.40369114 -0.10805361 0.43405917 0.41280934 -0.3601454 0.2129157 0.17623337 -0.32078743 -0.038332526 -0.4338655 0.28245407 0.097119674 0.34383997 -0.6146753 0.26030156 0.30004984 -0.55119115 -0.5672947 -0.25949955 0.7123466 0.16064872 -0.7014551 0.1629627 0.23950271 -0.08372747 -0.0137541145 0.15432277 -0.06099048 0.48441166 -0.26514837 -0.12404049 0.38571253 -0.2423632 -0.2686424 0.396022 0.35002333 0.67682725 -0.60635614 0.17729515
61 0.48956206 0.016188897 0.40108222 0.39907962 0.6553129 -0.075034454 -0.047880877 0.08647149 -0.22391838 0.16022982 -0.03827863 0.028431475 -0.14772388 -0.08172488 0.5805237 -0.110600576 -0.6591665 0.30343795 0.05532332 -0.047383185 0.51877147 0.07833865 -0.13738143 -0.033118963 -0.7360764 0.10971467 0.1539284 0.59545046 -0.2896209 0.07317889 -0.1308223 -0.056021005 -0.38502502 0.1060899 0.39280915 -0.16722 0.07883535 0.17887059 -0.16151333 -0.045081824 -0.18943122 0.20472468 -0.055930484 -0.116795614 0.4653884 0.35181972 0.20365228 0.12102409 -0.4739349 -0.16169393 -0.29507434 -0.62054706 -0.44297624 -0.10688208 0.3340304 0.32920995 -0.44139948 0.065702856 -0.06816829 -0.11231263 -0.5130776 0.30759376 -0.005119331 0.3115547 0.41593394 0.12568751 0.27579728 0.10244011 -0.41181353 0.027717652 0.13955191 -0.62407017 -0.081971064 0.5037702 0.1833418 -0.26652816 0.011363786 0.2701585 0.074524656 0.39342022 0.02542282 -0.725825 0.21928741 0.12389897 0.32643884 0.07386003 0.57128054 -1.0165396 0.038289722 0.5127461 -0.0945776 0.6966464 0.20296238 0.20089453 0.34166566 -0.25111568 0.061178472 0.28227684 -0.37841415 0.29045892 -0.14942013 0.34322423 0.25778538 -0.004685281 -0.26035824 0.47220802 0.008841011 -0.23969568 0.50148225 -0.23709182 -0.32374075 -0.87813586 -0.44315165 0.0037822942 -0.06405683 0.32746512 -0.12271766 -0.09056963 -0.18839109 -0.2183116 0.18074575 -0.331617 -0.037850317 0.23246238 0.061667174 0.05970378 -0.1182984 0.25625333
1755 0.27102032 -0.666175 0.5673527 0.21035245 0.27853355 -0.12343824 -0.107939 0.3467771 -0.44373977 0.10395272 -0.17469777 0.55332935 -0.3773236 0.15724552 0.06388865 0.36306533 0.021540402 0.277228 -0.11529425 0.99399775 0.1500083 0.23441851 -0.40671495 0.49022833 -0.06059157 -0.25271568 0.17430969 0.79454017 0.3038233 0.37713635 -0.26369694 0.64938015 -0.1086734 0.023594486 0.69336724 0.6086171 0.22717042 -0.21479546 0.025307922 0.2383231 -0.47370785 0.3723521 0.118359365 -0.21700975 0.11408166 -0.0910118 -0.5390127 -0.17755935 0.26408374 -0.2778228 -0.32559112 0.04859308 -0.28891572 -0.18429069 0.067183286 0.17763132 0.086172104 -0.15794429 0.27452213 -0.06738593 -0.20472239 0.050557666 0.03876736 0.29814678 0.08330522 -0.19477786 0.58503616 0.7627635 -0.023528036 0.2805479 0.26020887 0.5955885 0.2691429 0.1910115 0.39624238 0.09247676 0.00027123804 0.16862671 0.23514572 0.35601598 0.025539441 -0.5589271 -0.39553916 0.82711905 0.3565137 0.6980095 -0.019593738 -0.5876145 -0.1382637 0.11175107 0.01336805 0.34535855 0.3959352 -0.051737808 -0.41191298 -0.505343 -0.29548532 -0.056451507 -0.65392554 -0.59882927 0.23228888 0.27900812 -0.3903617 -0.25315374 0.1184007 -0.47334215 -0.62573117 -0.048531488 0.820587 -0.15536675 0.011323525 -0.45788434 -0.23017605 -0.44824627 0.28029352 0.8411717 0.09042516 -0.39535484 -0.11366685 0.5908393 0.5230188 -0.4771787 -0.22266208 0.12044295 -0.05123707 0.042739812 0.12974513 0.0037415032
1586 0.34428445 -0.6038254 0.1400514 -0.06455327 0.5849597 -0.35696757 -0.04795913 0.14539239 -0.4224837 -0.23240885 -0.29734966 0.25983715 -0.04106686 -0.36777815 0.19961898 0.32034123 0.6693405 0.60938203 0.3306703 0.23829073 0.9310967 0.26166877 -0.045545686 -0.27905467 -0.7169767 0.35681975 -0.39610898 0.67014176 0.25428474 0.24414751 -0.31465915 -0.00986637 0.030741861 -0.36479205 0.6672109 0.44108772 -0.14411244 -0.23837015 -0.52255607 0.5180401 0.091134794 -0.36359265 -0.34156445 0.115252025 -0.068917714 0.27320078 -0.39626524 -0.13638905 0.32937273 -1.025449 -0.19528423 -0.28614601 -0.17304388 0.23384549 0.6053208 0.049446553 -0.4286965 -0.08252475 -0.06968976 0.059397623 0.29317692 -0.12366026 0.21561316 -0.32100376 0.102111705 -0.17593603 0.31752652 -0.15603004 0.06759266 -0.086004265 0.17628264 -0.32048196 -0.36026067 -0.1608892 0.4595577 -0.4326072 -0.09367819 0.50958073 0.11503338 -0.111772895 -0.4194394 -0.41815558 0.08435887 0.30844125 0.45406666 0.5207263 0.20224196 -0.20757934 0.22813621 0.6367765 0.04373191 0.7919205 0.4226175 0.19340421 -0.032416098 -0.35052967 -0.09627148 0.21836011 -0.15471204 0.5085362 -0.53170013 0.5705115 0.13852209 -0.21095401 0.01925761 -0.046776067 -0.15316641 0.28745392 0.49380273 -0.54397446 -0.68818647 -0.20684606 0.30749846 -0.17477484 -0.20919429 0.14487728 -0.1416675 0.3380372 -0.059520096 -0.025338566 0.23684852 -0.82682127 0.17622837 0.3157877 -0.38536507 0.14214629 -0.6989058 0.69971615
1396 0.35362515 -0.75173736 0.4720889 0.37072182 0.1972497 -0.4377206 -0.75338256 0.01606192 -0.565278 0.39333263 0.2106422 0.19648832 -0.6274924 -0.6439966 0.007831003 0.024554636 0.18413796 0.3327308 0.32213 0.9112619 0.048381753 0.0536434 -0.06027186 0.049035143 -0.3294187 -0.09345287 -0.07916878 0.31570852 -0.12548794 1.0567889 -0.7068182 0.12904257 -0.27266055 0.08404599 0.030437592 -0.11705478 -0.29991084 0.014017934 -0.3910176 0.112487234 0.10006195 0.16547707 0.4028195 -0.49148637 0.18842523 -0.031924587 -0.32695407 -0.6247786 -0.4824685 -0.36725664 0.27409685 -0.47187483 -0.54268026 -0.45148948 0.11940778 -0.36802983 -0.13214529 -0.085373476 0.42467436 -0.63104445 0.37665835 0.115038656 -0.1481074 -0.3681951 0.5285488 0.18214627 0.28336415 0.3711033 -0.53365517 -0.5747955 0.408565 -0.024230331 0.14001244 -0.097185545 0.046456784 -0.24372299 -0.45012343 -0.20233817 -0.09883819 0.6310063 -0.081707284 -0.46189454 0.033128794 0.62857676 0.17532152 0.5956654 0.83506304 0.0068083336 0.6496383 0.68280584 -0.6027299 0.11841111 0.10062811 -0.47145936 0.09867045 0.12168247 -0.5736814 -0.17944805 0.11156616 -0.3399211 -0.14332981 -0.062381137 -0.38347796 0.11324452 -0.14945646 -0.15943643 -0.24483831 -0.29610118 0.31024542 -0.09329169 -0.28945252 0.0701477 0.3055989 -0.04999874 -0.25639796 0.47382915 0.1411273 -0.1661341 -0.48637378 0.0058483053 -0.13362116 -0.26134366 -0.020493548 0.3125437 -0.058237158 0.07046786 0.061884794 0.08071837
702 -0.058522474 -0.805774 0.03999635 0.45267454 0.68479496 -0.061795738 -0.24428867 0.13565594 -0.61929464 -0.024566686 -0.242083 -0.4773768 0.07704054 -0.22700311 0.15232934 0.17259586 -0.51870394 -0.21910655 -0.12406567 -0.10434113 0.2132396 -0.2958502 -0.1639306 0.1877689 0.024417792 -0.15821953 -0.4584812 0.454673 -0.16485184 0.8743893 -0.15903386 0.29745308 -0.32213247 0.022835646 -0.0046808794 0.461572 -0.041978456 -0.5651045 -0.31535074 -0.24453588 0.14335425 0.34391588 -0.09443772 -0.1346205 0.1907501 0.43160734 -0.67133874 -0.26138118 0.24215353 -0.4426183 0.18314824 -0.76650184 0.17511706 -0.07046826 0.15728799 -0.03684267 0.62825 0.18708761 0.11107694 -0.023496842 -0.1534907 0.2011414 0.12710713 -0.16700274 0.2061987 0.37055174 -0.2827586 0.30015847 0.35576725 -0.43698642 0.20599814 -0.623187 0.31326216 -0.13536914 -0.020523403 -0.1610011 -0.34192827 0.3974978 0.4025519 -0.36708784 0.29798663 -0.3224363 -0.06509174 0.8166524 -0.28888327 0.18941396 0.1788517 -0.58442587 0.018458271 -0.0052953665 -0.39756638 0.57595456 0.41255477 -0.0013972332 -0.019166637 -0.26658913 -0.20654716 0.033914752 -0.21949562 -0.6629026 -0.25479704 0.474322 -0.1391479 0.55008435 -0.13475099 0.29690167 -0.1575856 -0.24910745 0.39363846 -0.5680571 0.07525118 0.032404523 -0.29893807 -0.019159524 -0.06237665 0.21971358 0.40630198 -0.01897058 0.44529292 0.2861405 -0.12333969 -0.5427185 -0.20607474 0.46992877 -0.12797156 0.29786733 -0.23732512 0.39310548
1032 0.35442543 -0.32220608 0.3930686 0.33984086 0.5680549 -0.14091408 -0.15666723 0.014767324 0.087315395 0.055671267 -0.05316128 0.091746084 -0.061800584 0.07370583 0.6093619 0.08803533 -0.11206853 0.36141574 -0.026030725 -0.06948793 0.8688012 0.4840389 -0.21218704 -0.087565586 -0.8789603 0.20557758 -0.02976269 0.66249144 -0.008396334 0.19791707 -0.27137128 -0.23908675 -0.023496494 0.083359726 0.8150266 0.107625626 -0.4596353 -0.10970063 0.14172754 0.5014554 -0.34290883 0.12277984 -0.16869287 -0.10003723 0.40067473 0.3158836 0.18191482 0.0773202 -0.5002341 -0.6478269 -0.12217691 -0.37824225 -0.33164358 0.3479797 0.7049102 0.34664118 -0.59608376 -0.26384202 0.2934785 -0.06320614 -0.35255867 0.30746597 0.2943817 0.19223699 0.516755 0.31330046 0.3532494 0.101753615 -0.33543515 0.30208042 0.25139862 -0.48695073 -0.35133094 0.30526188 0.20570865 -0.35796556 -0.121766396 0.41598746 -0.13710353 0.25727147 -0.42126045 -1.0507138 0.1265965 0.4395794 0.5519542 0.14339864 0.34858036 -0.66068155 0.20267427 0.4465122 -0.06964544 0.609527 -0.09167066 0.2791231 0.26502433 -0.1998354 -0.3377068 0.37002024 -0.8715656 0.6511159 -0.12093067 0.7867528 0.14215969 -0.047396567 -0.45944336 0.32325858 -0.021453727 0.07606407 0.16347274 -0.39464918 -0.6581617 -0.89401335 -0.27710828 0.13566841 -0.28429705 0.26949888 0.086615525 0.0710932 -0.27895454 -0.2992363 0.16355254 -0.35269853 0.024948139 0.17413993 -0.01634311 0.33163342 -0.0036298023 0.24457765
738 0.50429165 0.045099307 0.66024077 0.6535914 0.5732624 -0.004866532 -0.16527624 0.20593235 -0.3872668 0.14963855 0.17206952 0.00620889 -0.06607078 -0.040558256 0.3222023 0.18248692 -0.7603691 0.6022772 -0.1659702 0.20278768 0.39335278 0.26645455 -0.17998356 0.14090578 -0.744336 0.15316184 0.026131706 0.6447431 -0.31848556 0.15110779 0.085109524 -0.1855696 -0.42637902 0.10630939 0.2843886 -0.119398065 0.18495902 0.4464434 0.08354274 -0.065874256 -0.24805358 0.13724703 -0.0033026186 -0.3742227 0.4534501 0.013721786 -0.22159737 0.14792219 -0.4137049 -0.050413743 -0.5036195 -0.60365343 -0.4580263 -0.072112285 0.4889306 0.41672063 -0.21245338 0.09296623 -0.04375838 -0.12698296 -0.3708269 0.48352927 -0.084247544 0.13378538 0.2814757 0.13324673 0.28883103 0.2019094 -0.49240556 0.13449313 0.24274783 -0.36370954 0.20013519 0.70549387 0.2869598 -0.32303116 -0.047293793 0.2415069 0.09908091 0.47840428 -0.045299385 -0.4530157 -0.19746149 0.13517301 0.12590273 -0.12758832 0.6585549 -0.983419 -0.012547674 0.66116583 -0.11280966 0.60708684 0.17059082 0.16251837 0.666326 -0.116645284 -0.23472977 0.3881339 -0.5405588 0.22299889 -0.09429247 0.47956032 -0.032538716 -0.04009537 -0.0865218 0.7837316 -0.24999283 -0.25870597 0.2838352 0.051731475 -0.41607338 -0.817851 -0.39828774 -0.056920283 0.25348487 0.45135733 -0.20963025 -0.061381232 0.034569073 -0.35053805 0.2687998 -0.095201924 0.045837138 -0.0026896386 0.17700501 0.2660028 -0.17117476 0.09339905
1778 0.49354553 -0.24108148 0.50408244 -0.09529589 -0.14146826 -0.34302527 -0.5951912 0.59017146 0.034109212 -0.04542667 -0.12827304 -0.5068722 0.13946433 -0.12994868 0.76749134 0.6374119 -0.31574258 0.5861924 -0.37110317 0.42517605 0.47447434 0.5317226 -0.5287083 0.029319342 -0.38695624 -0.20484416 -0.35143942 0.15390018 0.4073918 0.18105723 -0.07098113 0.055869773 -0.07067359 0.40014836 -0.022988519 0.5781919 0.49971253 0.25870988 -0.1815278 0.12117666 -0.39473373 0.026710412 -0.19898339 0.024634857 0.38048917 -0.10747152 -0.7043709 -0.8041852 0.34748322 0.23031278 0.2028844 -0.3347605 -0.023748683 -0.04795449 -0.17312777 -0.12082237 -0.044841744 -0.20638493 -0.0947223 -0.25981775 0.14715117 -0.08098925 0.22939768 0.51166695 0.13464095 0.106859796 0.2893697 0.1775359 -0.46057066 -0.18162501 0.20742168 0.3946166 -0.4021035 -0.1173088 0.41776222 -0.3277578 -0.5688 0.1431651 0.047180753 -0.025655417 -0.10626646 -0.4979189 0.44346473 0.75050515 -0.06926095 -0.07198629 0.43196443 -0.56492716 0.6605694 0.41776758 -0.45590192 0.5641039 -0.5435039 0.2743777 0.047150716 0.069693476 -0.36729017 0.022793876 -0.6690401 0.09807869 -0.26620817 0.23834355 -0.22632122 -0.46160832 -0.43818042 -0.2908006 -0.07605039 -0.17097841 0.40895855 0.07998258 0.3098909 0.3060292 0.046396535 -0.5474915 -0.12635212 0.010454888 0.047931947 -0.15450215 0.084625445 0.19329917 -0.13393511 -0.85642225 -0.112343974 0.3863613 -0.42343283 0.32438987 4.3155447e-05 0.29775757
1644 0.22949092 -0.26986083 0.67542905 0.2944232 0.3820002 -0.048673674 -0.29333395 -0.04120064 -0.24549076 0.37942898 0.16199858 0.018077504 -0.67964613 -0.41533297 0.20202143 0.33550754 -0.29377314 -0.08901358 0.2229495 0.5116395 0.21420734 0.007816298 -0.77501327 0.21695651 -0.12759809 0.12633243 -0.3186982 0.7561267 0.42780718 0.4836989 0.34916928 0.15629652 0.11465436 0.38493603 0.76480937 -0.3234511 -0.58292943 0.008194315 -0.4012381 0.3552761 -0.41026834 0.02966704 -0.23343542 -0.15834741 0.35628888 0.13865559 0.10987528 -0.058895703 0.3495869 -0.5307235 -0.23013502 -0.13411593 -0.076243624 0.13915145 0.027503842 0.32987183 -0.27830318 0.30823874 -0.23852839 0.4921102 -0.26162758 0.2748285 -0.055366687 0.026268274 0.25224322 0.12195926 -0.0524642 -0.4107422 0.49026254 0.19156533 0.17899697 0.07324016 0.45685852 0.4214889 0.84279543 0.32245147 -0.60340834 -0.5601577 0.28120983 -0.15800172 -0.65361226 -0.90243506 -0.2631548 0.3504863 0.111462705 0.14184317 -0.19314882 -0.36748067 0.27778915 0.20368902 -0.30561277 0.55659604 0.4242396 0.17410238 -0.17931573 0.40259486 -0.57134736 -0.2005806 0.03508782 -0.14940436 -0.7805117 0.047884054 -0.07609097 -0.2330684 -0.80656826 0.45035064 -0.20269686 0.08455696 0.13730459 0.1861659 0.15931265 -0.3310806 0.26736048 -0.19280767 -0.12511273 0.007275081 0.6498342 0.071438335 0.24781685 -0.0262315 0.5143907 -0.9987016 0.19066694 0.13833682 -0.4853748 0.094643675 -0.13666317 0.049352113
2441 0.32091302 -0.07383212 -0.031294882 0.6187826 0.23438273 0.3034396 -0.50468725 0.52318335 0.16539773 0.40058258 0.21476133 0.26207286 0.28291643 -0.089571044 0.28759393 -0.6412048 -0.3781747 0.0089194225 0.2027767 0.12735023 0.25956383 0.32064384 0.1191006 -0.20649226 -0.64235675 -0.09883547 -0.46379054 0.41854715 0.15480892 0.31530797 0.28119755 0.3158059 -0.1513358 0.05488777 1.0895914 -0.16747048 0.08384493 -0.1128429 -0.16223495 0.20380521 0.018364197 0.29187885 0.15268134 -1.08925 0.0512739 0.13409843 -0.34595233 -0.29955742 0.16575284 -1.0964292 0.17838246 -0.41114712 -0.5160393 0.09922974 0.37164438 0.1326087 -0.1476731 -0.2874005 -0.053919908 -0.28410453 0.12955116 0.0028622989 -0.067643054 -0.21489012 0.4530558 0.5924378 0.07859989 0.29153508 0.13932957 0.06523207 0.3452314 -0.4776085 -0.5914989 -0.2716626 0.63437366 -0.16110599 -0.042382155 -0.08822917 0.10745789 -0.22343126 -0.37318453 -1.1975249 0.6057733 0.47153378 -0.0854774 0.85891753 0.5275368 -0.09319295 0.0063884654 0.60552925 0.09866945 0.042502154 0.08494603 0.0750653 -0.06581991 -0.47136813 0.06419096 -0.33081064 -0.6050684 0.4465616 -0.7026378 0.2865807 -0.053813506 -0.1501599 -0.21770117 0.19734675 -0.08478247 -0.13303621 0.23215646 -0.3787305 -0.8471923 -0.11164181 0.36513352 0.09063685 -0.5120302 0.086707726 -0.04923648 -0.11745817 0.018323207 -0.07218696 -0.0013485418 -0.7714649 -0.15863435 0.23599508 -0.38691023 0.3782542 0.12282086 -0.16466427
1486 0.4250052 -0.37366182 0.71503 0.6289103 0.38934195 0.37221128 -0.21167082 0.17691517 -0.59765106 0.07706903 0.70549345 -0.37974975 -0.17784749 -0.40307742 0.14965977 -0.057075523 -0.59116095 0.5560459 -0.23146611 0.06274403 0.3599526 0.36629516 -0.047694977 0.5202371 -0.63592756 -0.101552576 -0.021692371 0.76416636 -0.3773427 0.41447496 0.2649084 -0.017672667 0.08357126 -0.1111235 -0.031141443 -0.13767664 0.15463647 0.19078244 0.18389766 -0.313871 -0.3121661 -0.033299364 -0.10495364 -0.15791744 0.1607618 0.16972138 -0.4683557 0.13196208 -0.030650962 0.24014391 -0.6774342 -0.46789965 -0.25340137 -0.15294665 0.40081525 0.279498 0.015158304 -0.27287582 -0.35896432 0.27254215 -0.221644 0.31782225 0.07855195 -0.07590107 -0.03815871 0.32212293 0.18254375 0.22847112 -0.3137673 -0.2820299 0.25873935 0.23064226 0.47465914 0.16287674 0.4290322 -0.15149602 0.020290166 0.49609724 -0.010221535 0.15769397 -0.24786623 -0.110321835 0.15375689 -0.03288009 -0.6017997 0.71063167 0.3560851 -0.8158777 0.10752268 0.51207584 -0.2636246 0.33287805 0.42316723 -0.07557212 0.4491883 -0.026245357 -0.64373326 0.21915433 -0.54031515 0.41435492 -0.3237542 0.34632775 -0.3625463 0.43248096 0.06376261 0.06341715 -0.33535057 -0.19948524 0.30420086 0.016143495 -0.74248075 -0.13904685 -0.19490713 0.50344604 0.38971722 0.47525793 0.1891714 0.33675858 -0.008393901 0.037284188 0.22681472 -0.38171923 0.29614925 -0.070142806 0.19595227 0.711591 -0.39312974 0.29455307
1030 0.44081068 -0.8321202 0.42424616 -0.09753238 0.55097544 -0.3738175 0.011081403 0.2055915 -0.391725 -0.35171247 -0.40152216 0.15186298 -0.38677993 -0.04872037 0.29979908 0.20958757 0.36871415 0.031944048 0.4055519 0.25702608 0.72386247 0.3840175 -0.19537498 0.13335496 -0.5328531 0.4174921 -0.19641505 0.85229474 0.060976442 0.06706174 -0.2691294 -0.15335019 -0.013914612 -0.31969488 0.4941381 0.38787216 -0.16402648 -0.39772338 -0.58389944 0.480098 0.027139729 -0.08105328 -0.107331865 -0.2695251 0.01945061 0.32152906 -0.25973296 -0.4390787 0.2589627 -0.8877493 -0.37069514 -0.72367525 -0.24338263 0.0395023 0.6012777 -0.1822259 -0.47348428 -0.0659208 -0.60066044 -0.10306213 -0.27538127 -0.057912137 0.15985774 -0.1461896 0.48565573 0.0013329309 0.23425248 -0.35246947 -0.07007503 0.14122011 0.09804393 -0.38595203 -0.45116445 0.2042401 0.120734885 -0.2429909 -0.36509788 0.7455066 -0.098929524 0.24671829 -0.1973341 -0.3788661 -0.03858053 0.30462646 0.66191 0.26288697 0.16712615 -0.41950187 0.35858762 0.9601372 0.16004136 0.50668776 0.47118235 0.28952795 0.29443887 -0.4423888 -0.12380409 0.14516044 -0.13292497 0.57897615 -0.2714233 0.64046395 0.23852053 -0.24830681 -0.04909844 0.07990381 -0.1442012 0.20424278 0.79464054 -0.66266274 -0.68224996 -0.37268856 0.39985287 0.118657365 -0.2948246 0.3503154 -0.120282926 0.45926058 -0.035279136 0.06715182 0.19692768 -0.91728693 0.19126052 0.53964853 -0.2741996 0.08058338 -0.544811 0.50501084
1655 0.44103646 -0.3350451 0.48482007 0.5431807 0.13680409 0.02225279 -0.39646792 0.1307126 -0.16000609 0.17723705 -0.10047143 -0.034005746 -0.30738306 -0.16820714 0.0016773308 0.20420417 -0.64113694 0.22423679 -0.24219137 0.46932605 0.8483062 0.3504555 -0.33523107 0.2727317 -0.19629776 0.10947882 -0.5343334 -0.00948478 0.3258245 0.43851206 0.05913285 -0.044709016 0.46907696 -0.007355182 0.9888958 -0.5135721 -0.32862586 0.069923885 -0.33121285 0.14057827 -0.6239138 0.088154554 -0.4064316 -0.26840743 0.018024817 -0.15758829 -0.3140366 -0.45187175 0.034747247 -0.6724429 -0.10620524 -0.21807244 -0.13660966 -0.0021595198 -0.35229224 -0.016851734 -0.15607125 -0.23862019 -0.6364755 0.4787294 -0.0971476 0.6579672 0.052168198 0.33584866 0.2964524 0.3314765 0.26110178 -0.33543542 0.4328509 0.00787271 -0.48572534 -0.06732922 0.23792759 0.5581396 0.7017879 0.14313455 -0.72392386 -0.3178514 0.048379153 -0.38748452 -0.28254873 -0.41431963 0.2177598 0.35516822 0.34398982 0.11794753 0.007394092 -0.31163743 0.26545206 0.3176478 0.00026021202 0.27045578 0.69689435 0.076074176 0.06034843 -0.033894505 -0.1219672 -0.22763236 0.16621494 -0.22257474 -0.45508033 -0.045888197 -0.2398154 -0.10228966 -0.8759948 -0.055594847 -0.35183576 0.055948608 0.34723082 -0.067990854 0.2404333 -0.4633421 0.43126887 -0.24971884 0.5696015 0.5247407 0.49047786 -0.10844234 0.28104103 0.049087856 0.14148313 -0.53632194 0.48268142 -0.13386375 -0.0813275 -0.00014274781 -0.045770373 -0.06469536
1730 0.04158462 -0.29297858 0.6965168 -0.20137228 -0.26159388 -0.48980218 -0.36315057 0.5328891 0.041131947 0.3289932 0.10657449 -0.4761034 0.09461086 -0.19333401 0.59249264 -0.06672096 -0.571561 0.7462176 0.067911714 0.38984665 0.500833 0.32091787 -0.22285911 0.7098766 -0.26665917 -0.3798963 -0.3157468 0.56301457 0.16837138 0.024448691 -0.2930822 -0.28171015 0.032732897 0.32591888 0.4864687 0.3013711 0.31635705 0.013007787 -0.3862954 -0.018446008 -0.21904132 0.3102183 -0.37691966 -0.6751723 0.69183594 0.00089693465 -1.1743397 -0.63527375 0.36747542 0.26848778 0.6116156 -0.7287237 -0.16045734 -0.07339543 -0.20741412 0.27389595 -0.07659777 -0.15302657 -0.6250201 0.01983458 -0.22505373 0.025122691 0.7203146 0.3111326 -0.16707301 0.23922531 0.06738427 0.3203842 -0.30526957 -0.32180604 0.06424311 0.28822163 -0.37239453 -0.14372137 0.44974023 -0.4760039 -0.24104285 0.26365218 0.30544916 0.34535497 -0.50153583 -0.33135626 0.36225927 0.91670066 0.3151983 0.28455874 0.64807564 -0.13628967 0.4177444 0.73039687 -0.34360382 0.3650929 -0.18349391 0.46561903 0.20713857 -0.081304125 -0.06596454 -0.26343945 -0.21935968 0.2188872 0.15822811 0.5778015 -0.25741082 0.05845755 -0.09437765 0.22166903 0.042944912 -0.39726707 -0.06281808 0.06010909 -0.012070104 0.11291294 -0.30657488 0.020899251 -0.22241484 -0.16310172 0.07368373 0.04312028 0.28135535 0.3084153 -0.12823418 -0.71006006 -0.45304418 0.23397695 -0.054517817 0.22978823 -0.2521596 0.051311307
1739 0.05611714 -0.60765374 0.17845464 0.1660381 -0.048737247 -0.3552748 -0.25368005 0.011564948 -0.42639107 0.10859437 -0.23667783 0.39913553 -0.2123147 -0.13361554 -0.06494046 0.29410204 -0.2519078 0.5835113 -0.29380274 0.83743083 0.4448826 0.7711191 -0.58766544 0.521292 -0.05407227 -0.28883228 0.250395 0.9446458 -0.010279991 0.2453907 -0.3236928 0.10000226 0.04916774 -0.10723857 0.6089959 0.5970697 0.039457012 0.031051988 -0.2485631 0.13726144 -0.41840228 0.12779874 -0.029816285 -0.43880647 -0.067999735 0.19006093 -0.46514577 -0.4419247 0.46152458 -0.16321221 0.5389277 0.14534858 -0.36847377 -0.20467247 0.23810154 0.1908294 0.04223709 -0.4647797 0.39618316 -0.18710247 0.682182 -0.34749675 0.09331971 -0.0925424 0.139628 0.15628396 0.43090972 0.3373729 -0.6186813 -0.0041588005 0.19045694 0.29593322 0.075093396 0.4240965 0.45848447 -0.25587687 -0.19056709 -0.13819477 0.08010172 0.07505206 0.3823355 -0.68594015 0.15575412 0.9944897 0.42745492 0.49962828 0.60687417 -0.3910231 0.3595728 0.5097055 -0.33045048 0.066542216 -0.014239654 -0.37285072 0.15188178 -0.25912553 -0.39389783 -0.019375658 -0.24684203 -0.21875907 0.09326948 0.22809318 -0.10049931 -0.3049968 -0.2361299 -0.37250486 -0.25174028 -0.18123327 0.16874908 -0.29124078 0.5911685 -0.14519973 -0.25367156 -0.21995208 0.3278207 0.1783444 0.03398029 -0.26506484 -0.57901734 0.543916 -0.10278928 -0.10146733 0.16292709 0.31056112 0.18181805 0.18099776 -0.11996104 0.18745297
1581 0.293017 -0.3257771 0.23571122 0.62450784 0.23268549 0.013881018 0.09890624 -0.04662162 -0.9736418 0.5664067 -0.5767208 -0.18689366 -0.037688635 -0.38872743 0.3984533 -0.10204899 0.67421436 0.44185135 0.029893698 0.18155345 0.52858174 0.31527123 -0.53753287 -0.26757377 -0.08946946 0.17237096 -0.18788518 0.65227354 0.065834604 0.40176582 -0.01114589 0.33860785 0.28007048 0.6319731 0.9052523 0.05318998 0.14593238 0.41434985 -0.08091967 0.49097165 0.12904896 0.42587164 -0.18229519 -0.28592017 0.06121507 -0.4403682 -0.60539985 0.22752576 -0.2758337 -0.41497248 0.107989594 -0.40550503 -0.042792063 0.17240395 0.43671706 -0.625853 0.35903952 0.08053702 -0.37879616 -0.6432811 0.15110047 0.17255975 0.39445552 -0.4944506 0.35686854 -0.5028096 0.12558277 0.20385413 0.0626265 0.006156074 -0.15452926 -0.291566 -0.26361474 0.10891512 0.14407085 -0.50406283 0.05522448 0.36429468 0.1289558 0.13315348 -0.29633304 -0.31149378 0.12239033 0.32421646 0.36711064 0.26012775 0.17107624 -0.23386316 0.3112828 0.388477 0.2905272 0.5141778 0.0076108132 0.24898037 0.102699704 -0.12538013 -0.41987076 0.3136458 0.28609508 0.045880273 0.14242208 0.45104632 -0.2745067 0.22664496 -0.5127548 -0.13997963 -0.4459112 -0.027341392 0.39529398 -0.011445592 0.053914793 0.18828185 0.52152354 0.04018061 -0.22998802 -0.06647972 0.2746057 -0.030414935 0.49753037 0.06838789 0.16784284 -1.0316569 0.20647351 0.27195376 -0.40115255 0.08496824 -0.58373725 0.06982885
1583 0.056823917 -0.27800968 0.4708952 0.65315086 0.3063441 -0.23092693 0.037631568 -0.013662434 -0.9733118 0.425877 -0.7402323 0.16260192 -0.19584149 -0.061339792 0.6825655 -0.07013932 0.4969249 0.29770973 -0.14112009 0.15556017 0.7576851 0.16122568 -0.5399168 -0.08126637 0.12028516 -0.03503467 -0.24781513 0.7745605 0.23954615 0.24146934 0.19492373 0.14067848 -0.0811634 0.25405106 0.8359928 -0.13114358 0.078385 0.29628548 0.07161724 0.465284 0.037211012 0.43089566 0.4129469 -0.44335434 0.050334454 -0.49218518 -0.31615505 -0.1938674 -0.073695034 -0.768923 0.119207956 -0.6628923 0.0072310804 -0.083407775 0.5662967 -0.36401471 0.36907917 0.18692996 -0.53038245 -0.48194963 -0.23764814 0.37147763 0.18882275 -0.37735334 0.35108563 -0.5558172 0.21131478 0.12145253 0.03675572 0.18437606 -0.23208237 -0.064267576 -0.31826788 0.283815 -0.18789826 -0.6569577 -0.3800082 0.27358907 0.30826288 -0.08511723 -0.37176576 -0.12482433 0.073506564 0.47575435 0.25515792 0.52130705 0.28934267 -0.3163755 0.26953548 0.51816237 0.207918 0.62444025 0.022361102 0.2999742 0.51493657 -0.16163507 -0.37678525 0.2914629 0.13970141 0.383285 0.07513106 0.74618644 -0.22014417 0.43060234 -0.6003665 -0.007641035 -0.54170734 -0.1585528 0.60209775 0.114259325 0.016047515 0.20904423 0.47060844 0.13562483 -0.1137433 -0.0948236 0.25484666 0.22807917 0.30181825 0.14563523 0.11143039 -0.74552095 0.18403174 -0.02112028 -0.42854962 0.21475342 -0.37298858 -0.29113513
1611 -0.011694206 -0.43342304 0.21259882 0.19086587 -0.003428198 -0.38516492 0.30611083 0.08155451 -0.2985023 0.07013575 0.14348541 -0.3148802 0.2810581 -0.3198944 0.35282224 0.18013623 0.3578309 -0.3273458 -0.13968392 0.643253 0.49091023 0.1553199 -0.53164035 -0.32394958 -0.7303421 0.1254177 -0.3554746 0.47326678 0.06892656 0.7058281 0.29227558 -0.3152071 -0.12277451 -0.34474096 0.5233197 0.12175514 -0.31924784 0.22073947 -0.07720099 0.39627144 0.18674167 0.07256784 -0.054104183 -0.6339288 0.72961426 0.3168998 -0.44950184 -0.45864168 0.49228162 -0.10161165 0.17473087 -0.25478327 -0.017388418 0.078160234 0.38387126 -0.5407938 0.3912464 0.8498442 -0.26116595 0.10638192 -0.22023168 0.09787413 -0.48129067 -0.26179495 0.62362987 -0.3336017 -0.14643012 0.2564699 0.25057298 -0.3201267 -0.11312885 -0.09258318 0.35243827 0.36694053 0.8452519 -0.36284474 -0.2058634 0.13792075 -0.5066709 0.8895813 -0.6884605 -0.7337069 0.1892414 0.8263304 -0.27401868 -0.06602209 0.07373907 -0.3133888 0.1621712 0.19056553 -1.0094794 0.16451257 0.020944037 0.66998297 -0.024441117 0.27668032 -0.8092402 0.012189213 -0.22755806 -0.022178384 -0.765298 0.033325706 -0.37515336 -0.088158384 -0.3727845 -0.027837414 0.17351103 -0.014741827 0.016966764 0.199093 -0.007031574 -0.2561827 -0.11233967 0.23571166 0.13540448 0.31321773 0.88885456 0.45998356 -0.055005457 0.14154136 0.25570506 -0.06625159 -0.2092748 -0.34661224 -0.25328305 0.6736262 -0.38988727 0.30452216
1741 0.3516352 -0.08260859 0.2159974 0.5532906 0.11253382 -0.48430666 -0.34267402 0.004222878 -0.04691052 0.29756162 0.37215865 -0.34522873 0.5451907 -0.3110497 0.027161997 0.32046923 -0.52098346 0.35733235 -0.40780908 0.74046695 0.529028 0.7858529 -0.6944057 0.4093722 -0.34096706 0.040652722 -0.28977814 0.52918786 -0.13238913 0.24949606 -0.3575819 0.07336885 0.33951184 0.058729507 0.7687872 0.15296414 0.24407749 -0.09156929 0.46273223 0.6395604 -0.27448475 0.09131166 -0.17842709 -0.33113074 0.017661532 0.28703883 -0.42559937 -0.23021278 0.13185903 -0.56719697 0.59513927 -0.030834926 0.023643753 0.3668311 -0.075552896 0.24810427 0.5863492 -0.6724748 0.12151891 0.6853132 0.055013485 -0.44455335 0.18389103 -0.2919973 0.49515507 -0.7446983 0.21730413 0.23303372 -0.12585215 0.23836061 0.50726026 -0.09538836 -0.4699123 -0.13452844 0.6161269 0.107389376 0.18377213 -0.11214417 0.29904836 0.6439076 -0.1734414 -0.7113985 0.24173586 0.72150314 -0.2910767 0.47114643 0.086287156 0.0035656036 0.43396673 0.19409333 -0.057513848 0.31138465 0.11106004 0.19750565 0.46141878 -0.2340264 -0.21950649 -0.21745856 -0.16879939 -0.48992348 -0.1586115 0.3762698 0.25943363 -0.024358278 -0.6444122 -0.11878934 0.3954361 -0.29007813 0.37826458 -0.18787515 0.5484011 -0.39653876 0.027590973 0.07338348 0.43047366 -0.1780558 -0.054722123 0.11221488 -0.04962685 -0.11213694 -0.12397368 0.0013711998 -0.15212598 0.16417117 -0.038716707 0.18732221 -0.36675936 -0.04777722
1568 0.39439327 0.23228243 0.4177067 0.3508158 0.3825623 -0.66900706 0.12686026 0.5726323 -0.53587705 -0.44462532 0.05624201 -0.17469424 -0.33392292 -0.7273465 0.19319734 -0.3472205 -0.2598229 0.29673356 -0.030345146 0.47741833 0.19326848 0.6532944 -0.10250798 0.16401045 0.086960554 -0.2833269 -0.45776245 0.32442787 0.019126242 0.75530636 0.50281715 0.5042006 0.21119711 0.30331796 -0.06923058 0.6644797 0.014183923 -0.063504614 -0.665582 0.3868268 0.16206945 0.015349121 -0.39860106 -0.74025387 0.26657408 -0.34615356 -0.38031355 -0.32475057 0.024905635 -0.4978183 0.06903101 -0.31017026 0.1084106 0.097874664 0.4091519 0.04635308 -0.28303844 0.1960471 0.0352726 -0.17368568 -0.27834678 0.46322808 -0.17930268 -0.50010675 0.0044529536 0.223322 0.99896157 0.43323386 -0.31414276 -0.50448066 0.31970128 -0.38611528 0.7641329 -0.22102019 0.37165713 0.20669736 0.5147999 -0.30343586 -0.0035371333 0.020693898 0.46869856 -0.29707697 -0.012334438 0.23328318 -0.07964976 0.07271873 0.3606594 -0.55778277 -0.12603757 0.32454228 -0.29097426 0.30762777 0.003482708 0.4638343 0.424 0.04557389 -0.32408848 -0.17907071 -0.47806677 -0.19732688 -0.51766676 0.31865364 -0.15694363 0.2227713 -0.5572556 -0.030763632 -0.40618065 0.19458202 -0.10760342 0.073654026 -0.24601533 -0.07648408 -0.29855955 0.4303763 0.21120106 0.6889277 0.20987386 0.07551598 -0.30780345 0.0042851283 -0.36284444 -0.546463 -0.49150702 0.23417564 -0.25971687 0.3066725 0.22772253 0.003728575
1735 0.40558168 -0.46936694 0.0964881 0.5082476 0.11090821 -0.123495184 -0.21530932 0.14785 -0.5313454 0.07798343 0.0765752 0.49196148 -0.2725176 -0.011411862 -0.021437623 0.5394628 -0.4060261 0.75062835 -0.19789432 1.1452266 0.05034217 0.5524567 -0.6396318 0.4406523 -0.14978755 -0.17806587 0.13335207 0.352759 -0.2835645 0.53136593 -0.34227812 0.18459192 0.34660813 -0.20300494 0.68025464 0.40179116 0.3624823 0.047748454 -0.07109056 0.6440105 -0.11139499 0.055866443 0.023001533 -0.3748752 0.07914918 0.053930968 -0.69197303 -0.12094987 -0.07924457 -0.21422355 0.26721704 0.26650703 0.0839376 0.041541956 0.11361265 0.3880211 0.43836355 -0.42574018 0.41179064 -0.12781093 0.027271103 -0.23185728 -0.17443615 0.21131651 0.4033793 -0.32340246 0.6424615 0.3850249 -0.6123476 0.06574303 0.5549801 0.24750638 0.05530024 0.100544274 0.13162366 -0.0025349723 -0.11568824 0.007454595 0.13690084 0.5374131 0.26444653 -0.7425595 0.14282727 0.8319757 0.16482377 0.52554137 0.43262386 -0.18456966 0.4528096 0.40204337 -0.43294108 0.12887031 0.17714709 -0.076167576 0.12810773 -0.44028723 -0.24683298 -0.18945357 -0.39710012 -0.39781 0.050751828 -0.014454561 -0.27467299 0.093134806 -0.2509049 -0.31552133 -0.02356509 -0.08733205 -0.15653291 -0.067530274 0.4643413 -0.2817627 0.11087527 -0.12820666 0.2374712 -0.22025335 0.056656063 -0.08158887 -0.2763998 0.4497949 -0.3194365 -0.3737602 -0.11797019 0.2641981 -0.14580263 0.3247359 0.47067788 0.062324245
722 -0.027849875 -0.11393118 0.8914381 0.6851651 0.34925538 -0.2870647 -0.27085394 0.47976667 -0.52363306 0.0016822095 0.19136393 -0.6088499 -0.24370073 -0.72981095 -0.1394921 -0.05034192 -0.9245562 0.39860868 0.31133035 -0.28131005 0.36442733 0.48267278 -0.006861986 0.36228567 -0.2796223 -0.2352873 -0.017547432 0.33058363 -0.04586088 0.98023206 0.5114331 -0.31676614 -0.2625997 0.2294594 -0.03925086 0.21306112 -0.16908398 -0.5087844 0.109981254 -0.36398354 -0.3167276 -0.043318372 -0.27570793 0.15277739 0.28868756 0.28091633 -0.3777588 -0.4200132 -0.3964425 -0.01035475 -0.58356017 -0.47834736 -0.12770936 -0.16760075 0.014362992 -0.41213906 -0.04854231 0.15629092 -0.18388768 -0.06991168 -0.03222293 -0.036178052 0.47441047 -0.20105594 0.008062829 0.19199248 0.03985704 0.33780265 -0.42669755 0.017978473 -0.21149184 -0.02951239 0.4472578 0.42296243 0.13449788 0.017879134 0.04664682 0.52112454 -0.076628014 -0.041019723 0.20014802 -0.6181643 0.16053505 0.53596914 0.13593578 0.49015895 0.45510104 -0.812742 0.16796331 0.12807928 -0.4664165 0.4166237 0.47086298 0.19686134 0.12727888 -0.29753432 -0.4390147 0.64030415 -0.24684021 -0.17539103 -0.45246032 0.290168 -0.1042265 -0.010898719 0.10147275 0.3806126 -0.53423 -0.39474234 0.27002367 -0.49288064 0.11765259 -0.50977015 -0.3184921 0.1133002 0.42604104 0.11737935 0.0004907308 0.18897955 0.11243262 0.17136352 0.019268459 -0.81569916 0.29556566 -0.10898991 -0.24690111 0.24484317 -0.30903432 0.47684008
